kind,dissimilarity_1_0deg,dissimilarity_1_45deg,dissimilarity_1_90deg,dissimilarity_1_135deg,dissimilarity_3_0deg,dissimilarity_3_45deg,dissimilarity_3_90deg,dissimilarity_3_135deg,dissimilarity_5_0deg,dissimilarity_5_45deg,dissimilarity_5_90deg,dissimilarity_5_135deg,correlation_1_0deg,correlation_1_45deg,correlation_1_90deg,correlation_1_135deg,correlation_3_0deg,correlation_3_45deg,correlation_3_90deg,correlation_3_135deg,correlation_5_0deg,correlation_5_45deg,correlation_5_90deg,correlation_5_135deg,contrast_1_0deg,contrast_1_45deg,contrast_1_90deg,contrast_1_135deg,contrast_3_0deg,contrast_3_45deg,contrast_3_90deg,contrast_3_135deg,contrast_5_0deg,contrast_5_45deg,contrast_5_90deg,contrast_5_135deg,energy_1_0deg,energy_1_45deg,energy_1_90deg,energy_1_135deg,energy_3_0deg,energy_3_45deg,energy_3_90deg,energy_3_135deg,energy_5_0deg,energy_5_45deg,energy_5_90deg,energy_5_135deg,homogeneity_1_0deg,homogeneity_1_45deg,homogeneity_1_90deg,homogeneity_1_135deg,homogeneity_3_0deg,homogeneity_3_45deg,homogeneity_3_90deg,homogeneity_3_135deg,homogeneity_5_0deg,homogeneity_5_45deg,homogeneity_5_90deg,homogeneity_5_135deg,ASM_1_0deg,ASM_1_45deg,ASM_1_90deg,ASM_1_135deg,ASM_3_0deg,ASM_3_45deg,ASM_3_90deg,ASM_3_135deg,ASM_5_0deg,ASM_5_45deg,ASM_5_90deg,ASM_5_135deg
bricks,2.2420644685039375,4.57108314216629,3.7478469488189017,4.5663091326182705,4.422562500000009,6.6686192995716915,7.130187500000031,6.676177878558828,5.366869918699189,9.518340270551478,8.492949695121927,9.629747658688832,0.9341899390695403,0.7409622770273983,0.7905976104325728,0.7429905808759055,0.746898551059069,0.43977124999505385,0.3171886822112166,0.4427090843434356,0.6333436034178124,-0.02305796970161426,0.10300295391938966,-0.02120436423509525,11.51064222440947,44.877115754231475,36.299520177165284,44.526505053010126,44.288062499999945,96.39436885865446,116.13456250000009,95.89789619551524,64.19004065040663,174.67950052029144,153.64170477642273,174.36934183142597,0.06829505940386292,0.05500529263913401,0.0629021911203919,0.054710428484083015,0.052994766840698676,0.04783012337595214,0.049473004002182984,0.04766368496878312,0.05001823823375151,0.04346895390258354,0.04568828392349919,0.04301695867303549,0.4050218105820528,0.24764276487445386,0.3304803644932493,0.2459205352531611,0.2638319930374943,0.19387913220964334,0.217866559627418,0.19058113623627773,0.23326728865799498,0.15246760380752938,0.18689724616302825,0.14741226593829984,0.004664215138977165,0.00302558221831677,0.003956685647746309,0.0029932309849119623,0.0028084453125000156,0.0022877207021588034,0.0024475781250000135,0.002271826864803402,0.0025018241560083214,0.001889549953384933,0.002087419287874275,0.0018504587334776433
bricks,2.3230191929133905,5.058714117428244,4.456016240157482,5.127658255316529,4.507375000000017,7.371945074326037,8.248812500000026,7.406399596875791,5.460175304878046,10.761771592091499,9.939532520325194,10.800923517169583,0.9434651028949342,0.7268436766292337,0.761834907624794,0.7236158916410994,0.7915609695871332,0.4203735156897013,0.2550795879495868,0.41882599565675854,0.6962702691221312,-0.05420693380598052,0.021905862312795937,-0.05532609326662776,12.224347933070872,58.35612871225744,50.83852116141738,59.048298096596206,45.16624999999989,123.2753212396069,156.40193750000023,123.61262282690835,65.95572916666677,223.18320759625436,207.34819613821153,223.4600026014574,0.06750164264244171,0.05332064733622756,0.05678626623880522,0.05256992671078892,0.05225560675659627,0.04715621832641748,0.04719573603621438,0.04705042557257048,0.049348169329914204,0.04251730801870517,0.044103067640264525,0.04219224928753676,0.3909730530456884,0.23588216218231037,0.2794621787879464,0.23121195402491618,0.2513290118987473,0.18592057818864666,0.19268007782979688,0.18325898916563096,0.22383689110980753,0.14204385896603625,0.16167493691760287,0.13994198177181796,0.004556471759427905,0.002843091432354351,0.0032246800333444693,0.002763597194377718,0.0027306484375000297,0.002223708926848752,0.002227437500000025,0.002213742546559994,0.002435241816213885,0.001807721481157451,0.001945080575281748,0.0017801858999416463
bricks,1.9205216535433096,4.247876495752996,3.6105437992126057,4.207700415400836,3.6883750000000077,6.071428571428574,6.67131250000003,6.013038548752833,4.5111153455284505,8.710262747138389,7.860200711382125,8.721253902185207,0.9425133496872241,0.7158186033719438,0.755748226933536,0.7188951226560667,0.7882934427783761,0.4204188339209201,0.2592070997140691,0.4242099457632357,0.6911116452968493,-0.02763654678734032,0.0699792474775048,-0.03361647972131061,8.347194881889767,40.83873767747536,35.13576525590554,40.407464814929625,30.682000000000013,82.50982615268329,104.33718749999976,81.98179642227248,44.76467225609757,144.76294224765894,131.58047510162618,145.4378251821021,0.08406698102452059,0.06657228488987531,0.07376705241385165,0.06675530634388448,0.06549904579457592,0.05924986385207531,0.06080964150527461,0.05974100568671218,0.061210959677350636,0.05303352221943579,0.05581044787570878,0.05272588880102227,0.4466595658256314,0.27047067518464324,0.34299646335481093,0.2764976813146479,0.2967239715114528,0.21920402409756515,0.242301437084523,0.22517515085763146,0.26432367765536835,0.16664959584385958,0.20211101528411404,0.16423915961978702,0.007067257298577106,0.0044318691154587204,0.005441578021827937,0.0044562709250658625,0.0042901249999999546,0.0035105463664894605,0.003697812500000017,0.0035689877604597768,0.0037467815846222454,0.0028125544789993893,0.0031148060920872067,0.0027800193498577655
bricks,3.2754060039370105,5.098270196540408,4.2952755905511735,4.993985987971989,5.355250000000019,7.110859158478213,7.856250000000041,6.948601662887373,5.865027947154448,9.39281997918832,9.479039634146329,9.245967741935454,0.9030416227145407,0.780105286665944,0.8393090805811179,0.7890473674792668,0.7417988901879649,0.5690752342639187,0.4594314621325115,0.5897814273494162,0.6882465103172962,0.24548552555267053,0.21331118755987255,0.26615796466968183,20.405819389763852,46.35414470828935,33.86466535433075,44.47479694959389,54.33275000000005,90.46145124716537,112.38575000000021,86.17561098513464,65.3905614837398,154.46475026014565,159.35886686991847,150.5898803329865,0.052545324599403406,0.043092405546850385,0.04632883268585552,0.043531019558368536,0.043200206162702266,0.037748882577587364,0.03651112844051771,0.03807549502332783,0.04176540653416424,0.034316928044697693,0.034426047384676084,0.03455766362846496,0.2948521417263804,0.19898751489836242,0.23314961026890021,0.205220797484939,0.1996588029625652,0.15517317265435332,0.1440549297602051,0.16218392468965886,0.18912815617239961,0.1215647304846617,0.11986275686803177,0.12165295236176685,0.002761011137256669,0.0018569554158142216,0.0021463607380339945,0.0018949496637910637,0.0018662578124999788,0.001424978135856479,0.001333062499999981,0.0014497433212714622,0.0017443491829640088,0.001177651550424959,0.001185152738531963,0.0011942321154581304
bricks,0.9651820866141779,1.589063178126356,1.1015009842519716,1.4935209870419737,2.146000000000001,2.7307256235827664,2.7736250000000093,2.5683421516754863,2.8427337398373935,4.489594172736716,4.263719512195134,4.3527575442247555,0.9895648698919991,0.9775406194214914,0.9874382659442128,0.9795876592588633,0.9474886758189963,0.9352629658996493,0.9306293764955202,0.940319731918607,0.909008537056025,0.8408805282590732,0.851220815391769,0.8485526657172097,3.962106299212604,8.559861119722244,4.789493110236231,7.779713559427138,19.929124999999992,24.759952128999743,26.655000000000015,22.82697152935244,34.52718495934962,61.296826222684636,57.61839430894298,58.36160249739845,0.12336725224015488,0.10419162804917696,0.11999314855860857,0.10590341706522113,0.09380710760651398,0.08667646632147108,0.08602665829555355,0.08790741639055018,0.08553312883966233,0.07336482977638445,0.07357743974349087,0.07307483629061538,0.6800275441612383,0.5491680584057191,0.6403445783234637,0.5618376925236928,0.5051385614660339,0.42400151466990915,0.4226753705484956,0.435813450967699,0.4457194583222123,0.3233822362114704,0.33181795552761256,0.3254377901603891,0.015219478925286,0.01085589535553804,0.014398355701008307,0.011215533746090172,0.008799773437500094,0.00751280981397711,0.007400585937499932,0.007727713856461571,0.0073159161291022744,0.005382398248117866,0.005413639639207031,0.00533993169890024
bricks,1.480253444881894,1.7651435302870608,0.8569143700787424,1.7026474052948106,3.3668750000000065,3.002015621063239,2.0805624999999965,2.887377173091457,4.63941819105691,4.7836888657648275,3.0090828252032575,4.638332466181069,0.9760634434110913,0.9696717882057417,0.9936463609866896,0.9734652412879023,0.8864460378312072,0.9143805617081946,0.9635440994437673,0.9250706486471921,0.805098698622324,0.8052116917008443,0.9230695469528652,0.819410767543885,8.418860728346468,10.63661727323456,2.2963828740157517,9.309938619877254,40.145875000000004,29.863567649281915,13.187062499999982,26.136180398085155,69.2415523373984,67.32713319458897,27.74129827235775,62.27894120707601,0.10550999910531791,0.0961571954082894,0.1218459737290337,0.09762586460154736,0.07697965437373686,0.0793537306870855,0.08916693438433336,0.08086688520337289,0.06799076700682012,0.06752396755732878,0.07883220012344565,0.06899742008450598,0.5915080639769107,0.5282650405751957,0.679619934709496,0.53217641475818,0.4077512833562743,0.4072701307279689,0.48097634375368126,0.4140474505352746,0.33938334681101384,0.3118976530932388,0.4044939208904041,0.3202036982498226,0.011132359911204186,0.009246206228787952,0.014846441313976371,0.009530809439199659,0.005925867187499985,0.006297014573958494,0.00795074218750001,0.006539453122495488,0.0046227443981757,0.0045594861946831895,0.006214515776302985,0.004760643978317789
bricks,0.6440083661417333,0.994667989335979,0.7455093503937025,0.9845619691239388,1.3029999999999986,1.6286218190980082,1.7856874999999979,1.577034517510708,1.5985137195121926,2.496162851196674,2.5961636178861793,2.426508844953175,0.9933255229020413,0.9817974117191532,0.9861548105713784,0.9817756797205563,0.9740163264812656,0.9482204994508892,0.9204933763784638,0.9503381526635037,0.9567982820085177,0.8595293474410737,0.8224240302201641,0.8645034647303163,1.4813607283464578,4.119102238204489,3.184608759842525,4.127348254696521,5.743499999999998,11.620559334845046,18.00856249999997,11.183736457545985,9.512893800813012,30.758779916753404,38.993013211382134,29.734911550468258,0.22217587454998552,0.20521350789401493,0.24335794750562378,0.2053443077296526,0.17402736404801397,0.17739699774372503,0.18718644615730073,0.17852910928970842,0.16548595706879352,0.1643682785399892,0.17361904529840816,0.1645544563592454,0.7327654765761016,0.6589236111168283,0.7493896563707352,0.6595302439876508,0.5569994588678584,0.5474122148694687,0.5764708027878367,0.5533912403910488,0.5100449751263395,0.4713181967827776,0.5113098176825568,0.4765225994786761,0.04936211923205091,0.04211258382216693,0.05922309061414994,0.042166284716970266,0.030285523437499986,0.03146969480848718,0.03503876562500005,0.03187264286377665,0.027385601986974567,0.027016930990199476,0.030143572890330705,0.027078169107686796
bricks,0.958784448818901,1.4831669663339335,1.0246062992126015,1.393886787773575,2.0249374999999987,2.4356261022927703,2.4518125000000084,2.3221844293272884,2.5454776422764236,3.7054500520291302,3.532901422764236,3.656932882414145,0.9788884804054655,0.9531417720568014,0.973912932222529,0.9598279275586347,0.9062448394626509,0.8701311344426415,0.855424625900284,0.8862522048226379,0.850619585850892,0.693398829646557,0.7063719590755146,0.7143254601645508,3.497047244094493,7.685163370326749,4.342027559055125,6.6705933411866924,15.33431249999999,20.97682035777272,23.87468750000003,18.700617283950624,24.227769308943124,47.92176118626429,47.982596544715456,45.921891259105166,0.16049422115032502,0.1441946015780388,0.16660159116931966,0.1451728501357654,0.1251181316796253,0.12614365932471552,0.13005599755489938,0.12537213393652055,0.11897502626792926,0.11585858162747478,0.12006609551115967,0.11463672272173987,0.6733557722342458,0.5734420427273891,0.663761367082257,0.5798454176575631,0.49970379089179445,0.46581601828529673,0.48180228616848,0.4646332233133779,0.4538654786540895,0.3888564151572571,0.4141531518452739,0.38399245030098617,0.025758395022649434,0.02079208312424935,0.02775609018014913,0.021075156416541396,0.015654546875000057,0.015912222787829892,0.016914562499999997,0.015718171967796846,0.014155056875454458,0.013423210936730238,0.014415867291294914,0.01314157819638107
bricks,0.6657234251968518,1.2403124806249608,0.9472194881889792,1.1382602765205532,1.4009375000000002,2.070357772738724,2.2851875000000055,1.9040060468631872,1.7794080284552822,3.3487903225806486,3.4016768292682973,3.1510145681581694,0.9914994721359961,0.9719672362981602,0.9809876459504138,0.9773392354184433,0.9623607618779506,0.9219421862591451,0.8974261233403047,0.9358425948080162,0.936880258790563,0.8069065608740414,0.791417338544425,0.8321485609978343,1.8184055118110247,6.013082026164064,4.0852608267716555,4.865583731167478,8.037812500000001,16.78905265810025,22.240312500000034,13.8201058201058,13.464875508130083,41.7537070759625,45.6116615853659,36.395681581685665,0.15920323129698144,0.13568391069106475,0.15232424640884978,0.13787752848370674,0.12594356374979987,0.11704481188126896,0.11812903432264214,0.11839974426804993,0.1183874936975599,0.10355689402874672,0.10497913985689197,0.1032350288203265,0.7419502434202436,0.6123862227868098,0.6808424051615737,0.6236686509370727,0.58372400393767,0.5044895055626516,0.5023353902424642,0.5125138835761385,0.534738293593332,0.4161120476634503,0.4252957862356593,0.4146703979273341,0.025345668855400173,0.018410123620420837,0.023202676044023984,0.019010212860775363,0.015861781249999905,0.01369948798832164,0.013954468749999964,0.014018499442739621,0.014015598663989784,0.01072403030088108,0.011020619805092884,0.010657471175533641
bricks,0.3774606299212599,0.6259532519065041,0.505105807086614,0.6044392088784181,0.7246874999999998,0.9276895943562605,1.0273749999999997,0.9025573192239853,0.802083333333333,1.2687955254942778,1.3065929878048779,1.2533818938605625,0.9803261401840775,0.9545074282710724,0.9667045239371348,0.9587350135167322,0.9461127419889815,0.8959035181887535,0.85730649619198,0.9084437036706189,0.9319532605734321,0.7573639922692531,0.6982432581739471,0.7721901087763688,0.4677657480314958,1.1126542253084506,0.8479945866141729,1.0193440386880779,1.2815624999999995,2.5621063240110833,3.7024999999999992,2.317775258251446,1.6228404471544704,5.785054630593133,6.988503556910571,5.537851196670138,0.31877835752692446,0.28447388598822826,0.3100677953981352,0.28649052425334004,0.26094771686585044,0.259004901668486,0.2617463287708158,0.2595384543695312,0.25458938207535103,0.24621184271589308,0.2536075180496826,0.24711568505634898,0.8197995084638207,0.7292167761728588,0.7787824421281025,0.7354835351911138,0.6832399324160651,0.6490350577409143,0.6466033307794172,0.651820904811939,0.6621439267907592,0.596626248364029,0.610818009880993,0.5992952420316467,0.10161964122756367,0.08092539180924348,0.09614203774305984,0.08207682048695362,0.06809371093750004,0.06708353908830211,0.068511140625,0.06736020929652523,0.06481575346550908,0.06062027149355567,0.06431677321132011,0.061066161800868664
bricks,0.5574557086614187,1.088040176080354,0.8384596456692948,1.0511501023002054,1.204312499999999,1.8300579491055646,2.0285625000000014,1.7910052910052885,1.5261686991869894,2.976977107180022,2.9632876016260186,2.9974635796045765,0.9923123742433665,0.9751774627639956,0.9821742063498649,0.9766281223953669,0.9632755351576017,0.9268845581419378,0.8987395156212502,0.929445521846646,0.9369393596332215,0.8059741058624615,0.7906262904869833,0.8061551436660936,1.7296998031496074,5.5474610949222045,4.022883858267724,5.285882571765152,8.255812499999983,16.26719576719572,22.9158125,15.952254976064465,14.215955284552848,42.694588969823094,47.43445121951225,43.70883194588969,0.24230882141782495,0.2111351479882605,0.2282159967592129,0.21380313736459391,0.20054698638972346,0.19061965113707335,0.18904507151073793,0.19262884857198448,0.1953022028649214,0.1790527893822569,0.17907512654660684,0.1789251805560248,0.7920419418677356,0.6629216836518241,0.7209366916722602,0.6707693762699193,0.6567221408178125,0.5652460334771826,0.5528193114834011,0.5715701661070446,0.6279424318784718,0.48541759095214865,0.4925207976689424,0.48600285224746353,0.05871356493689538,0.04457805071602466,0.05208254117680106,0.045711781546943414,0.04021909374999992,0.036335851399619555,0.03573803906250002,0.03710587330216853,0.038142950443890905,0.03205990138556686,0.032067900947683255,0.03201422023700608
bricks,0.4462352362204735,1.098332196664394,0.9055733267716571,1.041912083824168,0.9814999999999993,1.9235953640715528,2.292625000000004,1.8195389266817805,1.2925558943089421,3.307882414151925,3.41590447154472,3.1318938605619127,0.9962272112143857,0.982214421500262,0.9856222423719571,0.9837104969429086,0.9819183388239927,0.9430566264379897,0.9072487124267994,0.9480465399933915,0.9641921319077653,0.8263140826107259,0.7993982845387188,0.8400760984998633,0.8839812992125992,4.1440262880525855,3.358452263779532,3.8025296050592208,4.24662500000001,13.28111615016375,21.86225000000003,12.145943562610205,8.420477642276431,40.580905306971914,47.712779471544756,37.49414672216437,0.21647044731037257,0.1843832923685281,0.20208422276882915,0.18613524570370954,0.1768993136999121,0.16407062307095444,0.16449268600761513,0.1663306052564143,0.17036401348054597,0.15255947339061648,0.1545955240411045,0.15547954390938937,0.810483681380059,0.64141993230659,0.6986224440795396,0.6525350836564914,0.6685428627344543,0.5367456088779696,0.531495480495926,0.5477272980421761,0.6265380138348553,0.45546844527342617,0.46870583030828,0.4676401646161866,0.04685945455875279,0.03399719850465811,0.04083803309208177,0.03464632969318032,0.03129336718749991,0.02691916935489121,0.027057843749999866,0.027665870244965113,0.02902389708919965,0.023274392921222218,0.023899776053543716,0.02417388857427174
bricks,0.31729822834645677,0.4712009424018848,0.3673105314960632,0.4750449500899003,0.6582499999999997,0.6848702443940539,0.6754999999999997,0.6802721088435372,0.7408536585365854,0.8306451612903232,0.7653074186991873,0.8470993756503645,0.8828138639659756,0.7796691063575374,0.8347481800025938,0.7768115136371425,0.691704120800328,0.5679916516439873,0.5182346206838583,0.5707976593144115,0.6190435749593646,0.3362364096775279,0.41561711260316436,0.3312189855677215,0.3631889763779528,0.6363692727385457,0.4806225393700787,0.6459172918345838,0.9590000000000001,1.1955782312925172,1.3158750000000003,1.1921138825900732,1.1914380081300822,1.7950052029136312,1.5750127032520325,1.8162721123829346,0.4062085278482885,0.36530474639360644,0.3938283350231926,0.36486881231542445,0.32826901601430497,0.32776426648005336,0.3293450650533572,0.32847032719020575,0.3190479598705228,0.31360536288531776,0.3188281545024391,0.31190374221784145,0.845913906901343,0.7788330630397351,0.8259762172309214,0.7777188001777252,0.6997168172924056,0.6952612024298432,0.7022988560294733,0.6984563926119939,0.6710792717067521,0.6491615554801549,0.6703503810964239,0.642677610967112,0.16500536809667374,0.13344755773769712,0.15510075746714003,0.13312925020046842,0.10776054687500003,0.10742941438120741,0.10846817187500007,0.10789275584444083,0.10179160069754274,0.09834832363043183,0.10165139210343117,0.09728394440949369
bricks,0.5746801181102383,1.154814309628622,0.9327017716535463,1.146134292268584,1.2541249999999984,1.99609473418997,2.3254375000000014,1.9609473418997194,1.5679623983739814,3.2221644120707524,3.375698678861791,3.2206035379812645,0.992929958174852,0.9789088135826459,0.9840709231126228,0.9778634164684045,0.9674210278266162,0.9354131648996727,0.9022347880339017,0.9327300958031589,0.9488989829808123,0.8263198431504305,0.7967140432686611,0.8192426901999798,1.6883612204724419,5.039742079484168,3.812007874015758,5.300762601525209,7.7957500000000035,15.494708994708926,23.64906250000003,16.18568909045097,12.249872967479671,42.09573361082206,49.7152566056911,44.022632674297725,0.21280956713664465,0.18587929801975187,0.2017726663000317,0.18590963335295177,0.17403964167683134,0.16338557601034556,0.1622093554638572,0.1657349513449333,0.16616385380188484,0.1524889520064942,0.15184366717974057,0.15357518592499855,0.7828523815898943,0.646332129135121,0.6987961724964828,0.6523915718060798,0.6411336145476153,0.5470241723592212,0.5361063206575226,0.5592382236367329,0.5994292611911834,0.4782733837049734,0.4764214218160115,0.48802747194893215,0.04528791186488606,0.03455111343231573,0.04071220886582395,0.03456239177342896,0.030289796874999848,0.026694846448232407,0.02631187499999998,0.02746807409730741,0.027610426310294162,0.02325288048403889,0.023056499262591828,0.023585337731897877
bricks,3.2451402559055063,5.074028148056303,4.45767716535432,5.093310186620371,5.095437500000022,6.958994708994719,8.00943750000007,6.968505920886879,5.640688516260165,9.367325702393298,10.116107723577269,9.444784079084242,0.9254153060948224,0.8255125733016299,0.8612020863362859,0.8246751914736543,0.8171182980756515,0.6706188619333612,0.5647466873700435,0.6706173089623104,0.7755239560102712,0.4209394092786411,0.3379109479096986,0.41841897636872644,20.089628444881953,47.12883625767248,37.49458661417324,47.34862669725342,49.25556249999992,89.13951877047086,118.06481250000027,89.10544217687041,60.528899898373986,157.55280957336157,180.29611280487833,157.97196930281046,0.04986525880398184,0.04067836593216574,0.04307297359495967,0.040414142490038066,0.041677050789373005,0.03504089610138567,0.03287333645981162,0.035038291827892705,0.04020443804792275,0.031165680660135725,0.030461063390806547,0.030950777118894185,0.29790861739099744,0.20588985646027796,0.22909353784614225,0.2041217248308502,0.2142406340038413,0.15996061133028303,0.14373528047687287,0.1634909388278973,0.1969659320197795,0.12171141971265514,0.11453304591955638,0.11761017400645626,0.0024865440355880883,0.0016547294549111827,0.001855281054312093,0.0016333029132051,0.001736976562499977,0.0012278643995881056,0.00108065624999998,0.0012276818942165725,0.0016163968387492588,0.0009712996510095579,0.0009278763828987349,0.0009579506042634639
bricks,0.5513041338582693,1.1421662843325706,0.9223671259842557,1.0944881889763785,1.2041249999999988,1.9695767195767184,2.2959375000000053,1.8831569664902985,1.4923145325203266,3.259365244536939,3.3661712398374037,3.109521331945889,0.9924616067129843,0.9742516767352822,0.981050197759415,0.9761606698722735,0.9635624827094813,0.9245012896844879,0.8926635034309579,0.9304977072270662,0.9412167750033842,0.7992317005048762,0.7808415905619015,0.8146289933881409,1.5903051181102377,5.410378820757656,3.993479330708671,5.017236034472081,7.674375000000008,15.81563366087174,22.616437500000018,14.594167296548196,12.378747459349581,41.814386056191516,46.06167428861789,38.76339750260157,0.2114136871310319,0.1850929048272698,0.20085989188463663,0.1857906623610102,0.17349009337711452,0.1644582815310752,0.16443173925675067,0.16570962208096784,0.16724643025190625,0.15462840809431486,0.15655375656324708,0.15656472392332343,0.790581244516223,0.6451552462388419,0.6955949050653186,0.6504627121141056,0.6488453756184474,0.534671954166965,0.5151020470243759,0.5416533570274792,0.6099534837992926,0.44446022796623846,0.4484021641358459,0.45804229171135596,0.04469574710633784,0.03425938341739676,0.040344696167907916,0.03451817022054288,0.030098812499999916,0.027046526364154392,0.02703779687500004,0.027459678850217183,0.027971368432005744,0.023909944589781976,0.024509078694064428,0.024512512777186482
bricks,0.2825418307086619,0.4221588443176887,0.3003813976377954,0.38960877921755876,0.5602499999999999,0.6006550768455521,0.5551250000000001,0.5382338120433351,0.6214430894308942,0.66662330905307,0.6314151422764221,0.6208376690946931,0.8148178506894502,0.7091277719454057,0.8240814313456414,0.7382732048527691,0.5024471647603096,0.47570654132561424,0.5547426962972294,0.5518967703666507,0.4454695540458683,0.31045630873839697,0.3888880111284663,0.40819859125578006,0.3686638779527558,0.5679831359662724,0.3459030511811024,0.5122450244900494,0.9827499999999998,1.002897455278407,0.84675,0.862370874275636,1.085492886178862,1.2510405827263271,1.1185848577235769,1.101716961498439,0.48234143810577584,0.4368889450959341,0.4726192748550576,0.44618768632158534,0.4069767825840924,0.3993668591219083,0.40868083321523613,0.4124553771992102,0.3956136561411796,0.39651499597567136,0.40209540268644933,0.40261163617285745,0.8663690357183433,0.801941961408688,0.8542241834271566,0.8160538791616898,0.7512896618708451,0.7316541683556282,0.7473536370643772,0.7557410379369188,0.726152311127791,0.7125968551859037,0.7238795696046535,0.7276169225462412,0.23265326291394797,0.19087195034703813,0.2233689789645205,0.19908345142500944,0.16563010156249963,0.15949388816489815,0.16702002343749967,0.17011943818054276,0.1565101649253915,0.15722414203358667,0.16168071286157784,0.16209612958178535
bricks,0.5351870078740177,1.0579081158162325,0.8713090551181127,1.0646661293322595,1.1544999999999992,1.7967372134038775,2.143500000000003,1.8155706727135277,1.4909171747967493,2.9830905306971927,3.2510162601626087,3.0511186264308003,0.9919618220396621,0.9787265436915402,0.9840052282420257,0.976654651113703,0.960839669810695,0.9388429883133352,0.9107796864241644,0.9318512854248586,0.9315650955392549,0.8427082145614362,0.8144917662493559,0.8246249826997627,1.8966535433070875,5.032612065224142,3.7849409448818987,5.512183024366062,9.21962499999999,14.49955908289239,21.284500000000055,16.111992945326264,16.091145833333325,37.42859001040578,44.606453252032544,41.52328303850147,0.2362063105786015,0.20342773564882702,0.21871676582411984,0.20456907795134474,0.19458937133743906,0.18024356163520897,0.1776560493622436,0.18266841728223762,0.18818040338390082,0.16613018612603217,0.16443320745437276,0.1689369561656928,0.8077406844775383,0.664144175594718,0.7082801844601923,0.6693077852673864,0.6810625243060437,0.5618158978632735,0.5384230430402435,0.5709480865038873,0.6454619974180141,0.47689781895207556,0.4652828948008976,0.48533798824710267,0.05579342115715476,0.041382843631209046,0.04783702365256288,0.041848507653863366,0.03786502343749975,0.03248774151094537,0.03156167187499994,0.03336775067239769,0.035411864217727636,0.02759923874227009,0.02703827971373279,0.028539695158529204
bricks,0.645300196850396,0.9177878355756718,0.5140871062992136,0.8549817099634209,1.3966249999999991,1.5255102040816302,1.1630000000000005,1.4081002771478959,1.8295223577235762,2.3694068678459956,1.6349720528455285,2.142429760665976,0.9830846702888761,0.9779507335047725,0.995836666410438,0.9827575068917693,0.9245734230730529,0.9391026915298873,0.9794234327599106,0.9516396266155441,0.884569138704068,0.8730772324673881,0.9585915362063671,0.896987904046207,3.838090551181108,4.993799987599985,0.9694266732283465,3.937875875751761,17.104624999999988,13.776958931720824,4.8773750000000184,11.022234819853876,26.073170731707325,28.885275754422477,9.965256605691062,23.246097814776284,0.2859905829435625,0.2556474126959571,0.27416337036777855,0.25570707014895205,0.2390837817324714,0.23137772058604228,0.2321055625949102,0.23112792074606273,0.22805109652684086,0.21672395427242097,0.2204562376191091,0.21886256177739527,0.8118848839188736,0.7145643751203998,0.7811803243058096,0.7179417694753804,0.6963319926123474,0.6254188215693223,0.6338238234068274,0.6281154606264896,0.6516567356361243,0.5500594195171264,0.5778923794817498,0.5584933258347432,0.0817906135323987,0.06535559961813701,0.0751655536514197,0.06538610572416108,0.05716105468750003,0.05353564958359265,0.05387299218749977,0.05342011574839826,0.052007302627094486,0.04696927235547441,0.048600952705173096,0.047900820947764156
bricks,0.3140378937007878,0.7562775125550263,0.6715059055118122,0.7486514973029947,0.6446250000000001,1.1969639707734947,1.3929999999999998,1.1787603930461077,0.7457444105691056,1.6564125910509895,1.678417174796749,1.6340400624349656,0.9856641302608831,0.8973228908872782,0.9048773904346962,0.8963814311547363,0.9511961864927179,0.6734884195097067,0.42226188619971217,0.6715351486534336,0.9218511415065034,0.1347894444620354,0.04562233844969622,0.1409346241869141,0.46831938976377935,3.232314464628938,3.0227608267716564,3.2689565379130823,1.5948749999999992,9.210317460317464,14.89574999999998,9.287351977828164,2.5554496951219523,20.875585327783533,22.801638719512198,20.888072320499457,0.34533931738758417,0.30243465385850443,0.32275560795044084,0.3056349235778729,0.2805962540956315,0.27353820123335165,0.27465031744929796,0.2779873878421632,0.27117383397442457,0.2589110759827392,0.2644529525958327,0.2642228465037573,0.8508724366054926,0.730912555280111,0.7666140958636567,0.7358089260022,0.7165037525081682,0.6502605833180395,0.6447458430144107,0.6600310434694822,0.6852695701661785,0.5929518078997005,0.6001507353353411,0.6050248920403627,0.11925924413372259,0.0914667198545134,0.10417118246345866,0.0934127065104522,0.07873425781250018,0.07482314753397759,0.07543279687500014,0.07727698779930928,0.07353524823238879,0.06703494526653975,0.06993536413665373,0.0698137126145481
bricks,0.4083415354330716,0.9431458862917729,0.8069635826771674,0.9665819331638671,0.8871249999999984,1.5810027714789603,1.895062500000001,1.615583270345175,1.0868267276422763,2.609066077003122,2.8762703252032535,2.634105098855359,0.9940120194525872,0.9792930972732273,0.9823048176186872,0.9760395285793763,0.9722285877682072,0.9417711302100645,0.9121268816525825,0.9330067604484399,0.9562361140122938,0.8473286914196401,0.81497877087989,0.8340423290324928,1.2413877952755914,4.308264616529246,3.6946358267716586,4.982949965899943,5.726250000000008,12.131771227009292,18.531687499999993,13.947152935248171,9.013655995934974,31.938150364204,39.40536077235763,34.661680541103024,0.22196470876042732,0.18793698038729167,0.2029266629889243,0.19127022176241829,0.18162487095659527,0.16576858205040926,0.16431075265331838,0.16958602131698092,0.17526245970396373,0.15519565109777284,0.15289629080238132,0.15933386769205574,0.8387072777403849,0.6904714911635074,0.7316829577468086,0.6947803949079586,0.7099317147323837,0.5890406637333201,0.5695523624083279,0.5994804954729399,0.6782270924899966,0.5098440816105771,0.49987820947926814,0.5287052317076654,0.049268331935101314,0.03532030859709326,0.04117923055182046,0.03658429773304467,0.032987593749999884,0.027479222795003262,0.02699802343749997,0.028759418626123502,0.030716929781483507,0.024085690119661638,0.023377275741126354,0.02538728139370952
bricks,0.4165231299212604,0.683117366234733,0.45780019685039397,0.6537913075826154,0.9911249999999988,1.139014865205341,0.9848124999999988,1.0813177122700925,1.368203760162602,1.8108740894901163,1.337652439024389,1.7175468262226867,0.9896584722335487,0.9844416182316592,0.9934129588224596,0.9844689264098047,0.9401392374410423,0.953086184391799,0.9676055261568144,0.9516085792862891,0.8792382710963327,0.8671177320371495,0.9311467773611756,0.8476412410235552,1.2799581692913389,2.0337280674561375,0.8454724409448822,1.823485646971296,7.309749999999998,6.155139833711264,4.261437500000004,5.475371630133534,14.53474339430895,17.382023933402703,9.114964430894307,15.917989073881376,0.35576081916891816,0.31652603248155775,0.34022979412663684,0.3201702791822199,0.293863435544472,0.28637707276965785,0.29027896065681374,0.29138659673215084,0.28234117196724867,0.2785715100302441,0.285087297978217,0.2840431243749469,0.8426537585851347,0.74534962632581,0.8040259468414866,0.7519480324100112,0.7112409786755219,0.6598545910734039,0.6786332571316932,0.669518023442016,0.6713438688559381,0.6086579662501959,0.6420915861716691,0.6220970051128895,0.1265657604557397,0.10018872923851614,0.1157563128114537,0.10250900767162065,0.08635571875000002,0.08201182780811792,0.08426187500000003,0.08490614875514509,0.0797165373878395,0.0776020862005304,0.08127476746852069,0.08068049650468155
bricks,0.26753198818897694,0.7367474734949476,0.6540354330708673,0.7245954491908989,0.5564374999999995,1.1735953640715546,1.4804375000000018,1.1519274376417237,0.6395452235772359,1.8630983350676418,2.172002032520325,1.8532778355879322,0.996910789849552,0.9610400610139964,0.9626136431401247,0.9613330241607555,0.9915226757425449,0.8912845799060525,0.8110919290004638,0.8917213605964119,0.9887455894654367,0.7106951370439352,0.6047105138108786,0.7112440387036012,0.3353223425196851,4.210862421724849,4.04392224409449,4.178622357244719,0.9199374999999996,11.544343663391288,19.66168750000002,11.491685563114123,1.220591971544715,29.34813995837669,39.01765752032514,29.25910509885537,0.40972489050026784,0.37094372633115424,0.3967798174804939,0.37537770652654234,0.34437727993800665,0.3385971902959955,0.34122430077223426,0.344171527242243,0.3364170963168584,0.327071953769813,0.3326847590479149,0.32842588671512957,0.8727039444526559,0.7673098860020373,0.8034604733841434,0.7729094542334874,0.7523160283298018,0.6946541494435025,0.6827065579141892,0.7055462313685232,0.725793628192409,0.644615986029399,0.6391152655566986,0.649448473701123,0.16787448589545648,0.13759924810444224,0.15743422355985404,0.14090842255712693,0.1185957109375002,0.1146480572763426,0.11643402343750019,0.11845404016425799,0.11317646269426637,0.1069760629428027,0.1106791489027692,0.10786356306461911
bricks,0.4955708661417332,1.040920081840164,0.87979822834646,1.0403620807241627,1.0214999999999976,1.7709120685311128,2.1739375000000054,1.7377173091458775,1.2350101626016263,2.9272242455775177,3.3172002032520345,2.8534729448491087,0.9932349010951198,0.9776260813069301,0.981210204573346,0.9751925995450288,0.9759873363303616,0.9368494685560554,0.8988045756506005,0.9323463638472504,0.9683704102987485,0.8404735202509623,0.7935375623369012,0.8345357862397319,1.458661417322836,4.843263686527385,4.070743110236227,5.371070742141495,5.176000000000001,13.738410178886332,22.172437500000015,14.72209624590574,6.811737804878052,35.05339490114468,45.75724085365854,36.37012226847039,0.251621307500544,0.22120901376190677,0.23661998695806832,0.22426252192132756,0.20921617110061042,0.1977778820278153,0.19959069445367442,0.20054400851778745,0.2000417161177096,0.18024611302929563,0.18179816115971884,0.18521093678448877,0.8095871069753185,0.6766578397462977,0.7187023825858426,0.6870759117637456,0.6760258166661994,0.5793635541584419,0.5617271255368651,0.5957232453579099,0.6361862213618655,0.49176929527106783,0.4839020736148255,0.515201701653564,0.06331328238828333,0.04893342776951546,0.055989018228036425,0.050293678738513925,0.043771406249999895,0.039116090619408427,0.039836445312500024,0.04021789935238241,0.04001668818731832,0.03248866126216962,0.03305057140105511,0.034303091104587895
bricks,0.45435531496063036,0.6745613491226993,0.44617372047244114,0.6342612685225382,0.9304374999999988,1.0673973293020926,0.9419999999999995,0.9773872511967735,1.0743775406504068,1.444979188345475,1.201473577235773,1.2905827263267438,0.9524672204226579,0.9352013551875177,0.9737780671273396,0.9268357962364832,0.798339968811194,0.8134100008580765,0.8770976266787095,0.7852711977402204,0.7280257319220483,0.5831704558782829,0.7564002609371004,0.5178095139207046,1.2995816929133863,1.9122078244156504,0.757443405511811,1.7233554467108934,5.104562499999998,5.114260519022422,3.3989999999999982,4.453955656336604,6.702045223577237,10.040582726326743,6.2595274390243905,8.533038501560872,0.4219715412302646,0.38369416294785375,0.41231879918580255,0.3884840646138143,0.3561109268016067,0.3528045856111533,0.3572166818787995,0.3599807464380455,0.3474766833039957,0.3439811012274798,0.34668794667919567,0.3544472262242463,0.8258113656982576,0.7463062034647022,0.8056636958655394,0.7562029200453646,0.699502398518032,0.6660404117354042,0.6807075524290386,0.6854899262419614,0.6700649571254514,0.6228833311447999,0.6449540554494035,0.6568018573475822,0.17805998160824488,0.14722121068025415,0.1700067921620222,0.15091986845887026,0.12681499218749928,0.1244710756282576,0.12760375781249947,0.1295861378060924,0.12074004543994533,0.11832299800166973,0.12019253237263681,0.12563283617806204
bricks,3.836614173228353,5.616219232438477,4.797182578740149,5.723169446338908,6.059187500000027,7.849269337364571,8.878812500000041,7.984189972285214,6.800876524390252,10.379812695109223,10.799542682926784,10.464490114464047,0.8916657656326004,0.7776825609071787,0.8313651866468189,0.7689091680122978,0.728352908451369,0.56323927480777,0.443704829645318,0.5537247110719746,0.6592904762763343,0.2726323542608347,0.22502970751812337,0.27490121689491404,27.935285433070916,57.34713869427737,43.48800442913388,59.612189224378454,70.15231249999992,112.683862433862,143.35693750000004,115.13699924414179,88.12252286585368,187.83545785639998,199.28150406504068,187.34040062435037,0.04415193983695052,0.037577957533717905,0.04024136245713323,0.037258257349282946,0.03730679395230813,0.032976692128965694,0.03146376884608697,0.032654606730685626,0.03555900970973856,0.03022395771013954,0.029759384476055813,0.02985150442342025,0.2588183262189982,0.18521716300456842,0.2169191704906595,0.18088174026146367,0.18495790939962292,0.14340268906753662,0.13080733935520866,0.14170849900095508,0.17167621242083975,0.11206986991054671,0.10559365033407316,0.10723371737876483,0.0019493937913656982,0.0014121028924059063,0.0016193672524063719,0.0013881777407053965,0.0013917968749999744,0.001087462223768588,0.0009899687499999928,0.001066323340735739,0.0012644431715372814,0.0009134876196643034,0.0008856209643937116,0.0008911123163414787
bricks,0.444512795275592,0.9309938619877247,0.8006274606299257,0.9590179180358372,0.9250624999999985,1.5880574452003005,1.9589999999999994,1.6197404887881082,1.0528455284552842,2.5234781477627433,2.7990980691056904,2.5122268470343396,0.9948229486317776,0.975623611315674,0.9784193655315246,0.9744310494157126,0.9807443327374284,0.9283882934530476,0.8766051605861492,0.9267891148782914,0.9759175436827083,0.8044583252963804,0.7452620008302812,0.8098578810501779,0.9349163385826779,4.422964845929702,3.915784940944893,4.631037262074528,3.4763125000000015,13.000125976316435,22.395249999999997,13.260959939531338,4.345655487804881,35.45427939646204,46.15034298780487,34.393860561914664,0.3431657313427672,0.3132351007606276,0.3352611428157145,0.3127996581745459,0.28901043450021047,0.28615801044666717,0.28983198257783827,0.28596215934926006,0.2815597795677178,0.27534693819409023,0.2806572310840828,0.27530719518187463,0.8154143421660719,0.7111820459619732,0.7552055882257794,0.708545588846346,0.6788006490119293,0.62091094309151,0.6151391884977168,0.6201710649550456,0.6475360973216248,0.5595085819797465,0.5676141552341131,0.563811334148794,0.11776271916801624,0.09811622834852053,0.11240003388209893,0.09784362615411275,0.08352703125000045,0.08188640694279486,0.08400257812500035,0.0817743565796916,0.07927590947022184,0.07581593637286016,0.07876848135978426,0.07579405171891082
bricks,0.39154773622047356,1.0171120342240694,0.9273499015748071,1.0442680885361781,0.8185624999999975,1.7953514739229024,2.3666250000000044,1.8374905517762645,0.9944740853658511,2.9892689906347534,3.5022230691056984,3.0534599375650298,0.9969430723991122,0.9796309014996915,0.981071473957088,0.9787655875852789,0.9879690959845265,0.9394927414061915,0.8922464175103388,0.9370215176149743,0.9814623992041595,0.8358329044975588,0.77245359164008,0.8304334636567648,0.7458784448818905,4.994543989087991,4.6409325787401645,5.204724409448833,2.934687499999998,14.898778029730375,26.633375000000008,15.497984378936724,4.5188643292682915,40.682947450572385,56.617441565040615,41.9810093652446,0.30822105668755945,0.284601687591901,0.29984763364280687,0.28401875137793564,0.27008470893406783,0.26415893863813883,0.2634398798824889,0.26318587203308486,0.2643634955045542,0.2539418636687964,0.2529274902060753,0.254260881583488,0.8299362680353618,0.7011430116694182,0.7343914214543438,0.6969867433400374,0.6996455965434014,0.608707174008997,0.5932331825420833,0.6086453055008149,0.6656589660209509,0.5444769290778729,0.5371907791287643,0.5501967245015746,0.09500021978559574,0.08099812058015801,0.08990860340119093,0.08066665113428163,0.07294575000000013,0.06977994486242799,0.06940057031250019,0.06926680323781532,0.06988805775538645,0.06448647012358158,0.06397231530194432,0.0646485959036125
bricks,0.44469734251968535,0.5421910843821689,0.34836368110236243,0.5622791245582497,0.8673749999999998,0.8017132779037531,0.7071250000000001,0.8294280675233048,0.9514100609756093,0.9813995837669098,0.853785569105691,0.9802939646201879,0.8746246581416873,0.8420110694696097,0.9215249122702321,0.8321813546785316,0.6246394383668205,0.6868521648084414,0.7716302581643585,0.6722852112987953,0.5731408050238265,0.5611695577369572,0.6736850942486491,0.5556842603862504,0.6595103346456692,0.8208196416392834,0.41270915354330695,0.8755037510075026,1.947499999999999,1.6044343663391287,1.194625,1.6902242378432866,2.1963287601626016,2.2094172736732576,1.7068089430894304,2.2681451612903225,0.33538982700233533,0.3110871466847579,0.34899331991124793,0.30842638916760906,0.2713113697857134,0.2762070024740611,0.28191718087942086,0.27265642078177177,0.2661142564421548,0.2619523955330284,0.26725826386291224,0.2622258792286784,0.7974532042475095,0.7541197317211505,0.832080685279866,0.7475364496772772,0.6518050588199896,0.6651460716752113,0.6893952952071903,0.656161872335566,0.6267509886857847,0.6103687750821212,0.6444992168718515,0.6149499068197617,0.11248633605665642,0.09677521283246408,0.12179633734267464,0.09512683753496944,0.07360985937500011,0.07629030821570601,0.0794772968750001,0.07434152379352657,0.07081679748176094,0.06861905752549215,0.07142697960301803,0.06876241173725342
bricks,0.5847071850393717,1.1376402752805517,0.9560777559055147,1.1939983879967764,1.1991249999999984,1.9469639707734934,2.4334375000000064,2.0396195515243116,1.4568089430894304,3.2269771071800215,3.6979166666666656,3.2998829344432883,0.9941852946350327,0.9813082916874775,0.98473184834872,0.9796742061728136,0.976746252479395,0.943605534831591,0.9042955365459999,0.9393045563057386,0.9657063414811133,0.845816631406094,0.7939580765638431,0.8397212521671522,1.4344857283464572,4.639779279558569,3.790354330708669,5.04457808915619,5.737874999999999,14.086797682035728,24.058312499999992,15.158919123204798,8.467606707317078,39.012877211238255,52.45820630081299,40.55508584807489,0.24768671025641895,0.22198682704252626,0.24301503316674583,0.22117100634183653,0.20585961159853572,0.19777397020654242,0.19742381837686152,0.19723110154011433,0.19629880803986074,0.18013200650909592,0.18204735263996732,0.183245997655423,0.7741385715463555,0.6462286434630258,0.6962016659525326,0.6379491184207006,0.6430652683575739,0.5513644624229745,0.530804137565062,0.5419692628998702,0.6025041246815679,0.4641548502217061,0.4534317061466613,0.4652853297874964,0.061348706437647234,0.04927815138040847,0.05905630634503458,0.0489166140462607,0.04237817968749998,0.03911454329125833,0.0389761640625,0.03890010741472689,0.038533222037870095,0.03244753976899297,0.033141238603220616,0.033579095656731284
bricks,0.6376107283464586,1.178374356748712,0.9739173228346492,1.2357864715729456,1.2912500000000005,1.9646636432350684,2.3548750000000043,2.036344167296545,1.4695121951219494,3.0962539021852273,3.410188008130085,3.1221383975025976,0.991641864790419,0.9720797177522663,0.9767363141887253,0.9694808177331646,0.9688571280531098,0.9224865708565393,0.8750678115330712,0.9167068855910528,0.9614485823254362,0.8028837184186135,0.7403793086246471,0.7934401893404326,1.5525959645669285,5.191518383036778,4.326894685039375,5.676731353462721,5.786750000000004,14.421831695641165,23.22900000000003,15.504472159234009,7.165015243902443,36.50884495317382,47.88440040650418,38.287200832466254,0.2152744283526615,0.19448417065720136,0.2157614855416661,0.19304368604880584,0.1740812489902344,0.1728373484017631,0.17647715857866694,0.17245778132849085,0.1679255566319398,0.16119565106999784,0.16703513295006217,0.1635228243830543,0.7493741050677576,0.6187554727519791,0.6755579836923469,0.6097502050835297,0.5943174852059951,0.5081886165940322,0.4959362585701288,0.5040909747041923,0.5573856541772227,0.422562598623703,0.4346605441118211,0.43234299814199795,0.04634307950256519,0.03782409263621943,0.04655301864314659,0.037265864723309915,0.030304281249999985,0.02987274900255244,0.03114418749999996,0.029741686340745564,0.02819899257014682,0.025984037923880494,0.02790073563964494,0.02673971409421122
bricks,0.9371924212598445,1.043028086056172,0.6641240157480318,1.1701283402566822,1.8778125000000008,1.620559334845052,1.4652500000000026,1.8171453766691863,2.024580792682926,2.0599635796045765,1.9124745934959348,2.2132544224765867,0.8525202447205344,0.8360533789349295,0.9227569856657611,0.7792301153081068,0.45761694851379703,0.6223762540886763,0.6678860805816006,0.4894508487385862,0.38698308829527617,0.40832326582552453,0.44987861022886505,0.2923038018288842,1.9836983267716535,2.1866823733647496,1.034325787401575,2.9491598983198037,7.3285625,4.997984378936761,4.376375000000002,6.769148400100783,8.332761686991867,7.7591050988553585,7.19029471544716,9.31991415192508,0.1846276276707556,0.17413009392128964,0.2078573523805561,0.16893045118591027,0.14270363739232433,0.14795412898183824,0.15465617106989296,0.14391262785621065,0.13966943986390945,0.13700853938333732,0.14117091462554154,0.1354111062934291,0.6240327162369986,0.5825227094011692,0.7025880509499942,0.5596141284472644,0.4356926242035054,0.4574762281519811,0.4916953255290346,0.4365252549374742,0.4121493826662466,0.38885943129961775,0.4171804693921482,0.37480860850606784,0.03408736089933116,0.030321289609037155,0.04320467893865468,0.02853749733787521,0.02036432812499999,0.021890424282774424,0.02391853125,0.02071084445648018,0.01950755243189822,0.018771339863955495,0.019929227136211942,0.01833616770761035
bricks,0.7738681102362217,1.3989707979415966,1.1309055118110247,1.439890879781759,1.5762499999999995,2.383597883597881,2.829312500000007,2.4412320483749057,1.8205665650406484,3.7572190426638903,4.151867378048781,3.8277185223725314,0.9945933747236936,0.9787544084591558,0.9818098258834734,0.9772583509199931,0.9794108318565362,0.9399769661300837,0.901171645391309,0.9359322155717181,0.9730627947590106,0.848391902625541,0.7975827133650156,0.8364634130597367,1.4705954724409456,5.816727633455282,4.98191437007875,6.225928451856923,5.598125000000011,16.537540942302822,27.419937500000042,17.653376165280896,7.320566565040643,42.286875650364195,56.90834603658536,45.62818678459931,0.11403828460286417,0.09687608158809487,0.11220243103575601,0.09564264204853053,0.08595038539762324,0.07924090555093613,0.07878560702945651,0.07831943642527266,0.08133692985887231,0.0690386032844816,0.06937755232695846,0.06907045438455567,0.6743257783578882,0.54181015200518,0.6245489290244686,0.5346248708153295,0.48819762265000116,0.4084955529491551,0.4056779502321816,0.4092863782797097,0.44346466997021855,0.3179297351553231,0.3261853526512624,0.32565537256313537,0.013004730355163847,0.009384975183863213,0.012589385530333584,0.009147514978023338,0.007387468749999968,0.0062791211125323805,0.006207171874999947,0.006133934121972324,0.006615696158867114,0.0047663287434720324,0.004813244766879858,0.004770727668888986
bricks,0.6617864173228352,0.9760059520119041,0.6990034448818908,0.9570959141918288,1.360312499999999,1.5909549004787096,1.700124999999999,1.5641849332325526,1.5746951219512189,2.2862903225806464,2.4374999999999996,2.3188735691987534,0.9900320500381548,0.9793502191281551,0.9879295672454338,0.9817611173899075,0.959632485825922,0.9443740520577805,0.9314451825172553,0.9506567859006099,0.9428016954109801,0.8831594734490958,0.8591931402440376,0.8829326710679963,1.428518700787402,2.9804699609399274,1.764825295275592,2.635935271870548,5.789937499999998,8.002141597379698,9.9605,7.117850844041317,8.211763211382115,16.80359001040582,20.2873475609756,16.844888137356907,0.18569795854898472,0.1683097600396008,0.1968210754188294,0.16834559051201203,0.14370121454775528,0.14325612171104551,0.1459683452413571,0.14298639341041033,0.13801175719562228,0.13193362042766388,0.13269512074872455,0.13049654585426318,0.7190012594919876,0.632576622916589,0.7237286596833499,0.6346990263414289,0.5354260062508405,0.5110033751588384,0.5194596245849212,0.5122829052611269,0.4965244182730779,0.4384004381089714,0.43715378279471734,0.4297972807396558,0.03448373180926045,0.028328175324588003,0.03873853572902453,0.028340237844838037,0.020650039062499997,0.020522316407689888,0.02130675781250002,0.020445108700516634,0.019047245124223396,0.01740648019915089,0.017607995070518592,0.017029348479893812
bricks,0.848363681102364,1.5663091326182643,1.1694143700787436,1.296422592845185,1.8410624999999965,2.637314184933229,2.8511875000000027,2.158541194255474,2.3770325203252,3.9415322580645182,3.929623983739838,3.3532778355879405,0.9865218934934148,0.9522871733483157,0.9697161104103214,0.9661792599933028,0.9382342227101247,0.8594222991285975,0.8248200716871733,0.9032484507776875,0.8944841826835939,0.6781401176456585,0.679924396628927,0.767432097319551,2.3721087598425217,8.228098456196928,5.371062992125995,6.052948105896232,10.87593749999999,23.46409674981104,29.489312500000036,16.990614764424244,18.61661585365856,51.681386576482815,52.79115853658552,39.613163371488,0.16392613762628833,0.1397826999050119,0.15906124006555009,0.14494808222153932,0.1252033970186113,0.11751976691227925,0.1181888716208088,0.1227351053321538,0.11507204234549806,0.10201447139027656,0.10441617265481207,0.10673243442174503,0.6872244015440687,0.5668725150331392,0.6422469464338069,0.6020859442969346,0.5172820788093254,0.4589590714198513,0.4565342024952796,0.4934000594548048,0.46089178703182404,0.3748758893984724,0.38171976234337457,0.3996370643409299,0.026871778597072817,0.019539203192734618,0.025300478091190553,0.021009946539702125,0.015675890625000004,0.013810895615116444,0.013968609375000022,0.01506390608089489,0.0132415749295641,0.010406952373037555,0.010902737111879522,0.011391812557592102
bricks,0.6429010826771662,1.2594705189410396,1.0068897637795307,1.1612003224006444,1.3251874999999975,2.168241370622317,2.569312500000002,1.9811035525321197,1.6472942073170702,3.5968392299687864,3.974466463414643,3.389763267429765,0.9957501399129174,0.980969432609025,0.9851005716454084,0.9835876253361545,0.9837544066446139,0.9447950631813126,0.9171647337076883,0.953633330372542,0.9746664121739749,0.8558739960574053,0.8225426145240228,0.8738365878164638,1.3573449803149622,6.109492218984455,4.791830708661429,5.272428544857107,5.177437499999999,17.78401360544214,26.90381250000003,14.953136810279611,8.063706808943097,46.786095213319456,58.19435975609747,41.021787200832506,0.1382500985166063,0.117385851727104,0.133112175835539,0.11969619720217184,0.10446564177996516,0.09822788701324986,0.09915986933986959,0.10022514544249768,0.09719942912688945,0.0860650814159289,0.08746601847275345,0.08671333027755267,0.732900581527735,0.6075036919101816,0.676362460755398,0.6192357183463012,0.5566712640291662,0.48585106906981745,0.47191663470029827,0.4924601124958151,0.5006189837319223,0.38866894655177137,0.37733651693040315,0.3775718775644918,0.01911308973985135,0.013779438185697646,0.01771885135567145,0.01432717962466121,0.010913070312500004,0.00964871778708778,0.009832679687500009,0.010045079778969812,0.009447729022593204,0.00740719823913047,0.007650304387476048,0.007519201647823932
bricks,3.656988188976382,5.373922747845496,4.559301181102347,5.34738669477339,6.003500000000035,7.3920382968002025,8.13856250000005,7.3156336608717485,6.873348577235768,9.700572320499464,9.930068597560968,9.553394901144602,0.901004283511123,0.7944202459227496,0.8481739342470371,0.7963320201340865,0.7301384382562559,0.6101365135429433,0.5292865449825641,0.6199885169252032,0.6453601878488233,0.3534662501354046,0.3304034624162932,0.3774033104658278,24.8406742125985,51.66643933287864,38.20287893700785,51.179490358980736,67.5755,98.11892164273095,119.08993749999985,95.618102796674,88.5711382113822,163.20980749219615,170.23786839430835,157.2015478668058,0.04298705331159745,0.03634566571166868,0.03920817086337924,0.036390058930156316,0.035112987269669695,0.03197689871717681,0.03091735455209591,0.032134333540868684,0.03305885581059367,0.029130073333314927,0.028807967672164144,0.029367094628847776,0.2642321240028475,0.18907902747830538,0.220765134150074,0.18929746529053895,0.1813331223460642,0.14797015868624105,0.1333040235751384,0.15024829018877606,0.1661553654053989,0.1175218604128559,0.11349842711552559,0.11521930460772878,0.0018478867524141219,0.0013210074160243685,0.0015372806624519406,0.0013242363889402495,0.001232921874999986,0.0010225220515685837,0.0009558828125000058,0.001032615392115798,0.0010928879475056226,0.0008485611724043054,0.0008298990014004543,0.0008624262469396998
bricks,0.661048228346457,1.0167400334800665,0.7116756889763785,0.9668919337838676,1.3456875,1.6829805996472653,1.7441875,1.6089065255731934,1.587080792682926,2.548061914672216,2.5065421747967456,2.460392819979189,0.9899854956575816,0.9801554197240854,0.9884269660056173,0.9819191004129744,0.9653202704211186,0.946893480747921,0.9344258575463217,0.9522215382203275,0.9534837352764772,0.86157878423029,0.8373560744000513,0.8699877407932946,0.9735482283464569,2.1793663587327194,1.4299335629921268,2.0077500155000316,3.361687499999998,6.028911564625849,8.672812500000003,5.546170319979845,4.493330792682928,15.90381113423517,19.727324695121997,15.211433402705525,0.16417574722736747,0.14859900980347926,0.18056524617859918,0.1516167491884145,0.12270938737521274,0.12372003136131889,0.13086431427245548,0.12593735225087235,0.114816423445563,0.10966559924320926,0.11583196208060038,0.11152242384749986,0.6998928453897478,0.5936923514109926,0.70698551739726,0.6096209716364348,0.5039141240869754,0.4641742094092886,0.501006220192635,0.4764925370365319,0.4553977807783619,0.3756933994456807,0.42016060514159376,0.38512369842244176,0.02695367597766446,0.02208166571457452,0.032603808127538124,0.022987638634462588,0.01505759375000002,0.015306646160045729,0.017125468749999997,0.0158602166919603,0.01318281109283083,0.012026543657372178,0.013417043439441645,0.012437251020821405
bricks,0.6256151574803153,1.0051460102920207,0.7408341535433086,1.0293880587761177,1.2115624999999992,1.6361174099269318,1.8062499999999997,1.6945704207608974,1.4146976626016252,2.4829604578564024,2.6631097560975614,2.6515348595213313,0.9939360281263948,0.9854364634244227,0.9894202548593529,0.9839616229279563,0.9783614636962578,0.9583776737190485,0.9348012829761322,0.952742717774759,0.9707421073187755,0.8872533504465656,0.8530101873874224,0.8714887143796107,1.671628937007874,4.015872031744075,3.0107652559055156,4.548515097030206,5.9565624999999995,11.348513479465836,18.38087500000001,13.372071050642456,8.0526549796748,30.208766909469308,40.684324186991894,35.843392299687814,0.24099059471039727,0.21833559121116944,0.25269954991764054,0.21994997297514948,0.1940986983148007,0.19152005004715902,0.1994234854837813,0.19326536608300818,0.18543541424280824,0.18028482851004526,0.1853399900457984,0.18061853972704384,0.7497867137600708,0.6588801160609422,0.745321747378844,0.659854625605367,0.5973986422466859,0.5570422849000705,0.5766696364959333,0.5586962381187408,0.5494866082546203,0.4853948503861567,0.5045700078651395,0.47957266414609784,0.05807646673887096,0.047670430389530886,0.0638570625285781,0.048377990611768985,0.037674304687500014,0.0366799295700663,0.039769726562499934,0.03735150172719917,0.03438629285540189,0.03250261939089643,0.034350911910176654,0.032623056893129714
bricks,1.0600393700787432,1.592287184574368,1.0083046259842556,1.45260090520181,2.173937500000005,2.5903250188964533,2.368375000000005,2.36136306374402,2.5238821138211383,3.7771201873048836,3.38891006097561,3.4787981269510855,0.972222903831915,0.9449577861768768,0.9742715359139547,0.9547385200874291,0.878885136580634,0.8468200975187148,0.8561982634023747,0.8712551078034743,0.82970685967572,0.6576469956711897,0.7114008506741667,0.7039596812660734,4.989665354330718,9.855415710831446,4.63379675196851,8.030194060388137,21.538687499999984,27.05391786344169,25.467500000000058,22.505228017132776,29.975990853658573,58.621422996878216,50.14068851626018,50.06633714880343,0.19023911921448008,0.17006209070907924,0.18872917206354536,0.17078974868661279,0.15590910312582748,0.15280566284725003,0.15505223414223973,0.15442612920645413,0.14862579583623628,0.14526015164502024,0.14883804695869435,0.14558225114474543,0.6745120738907486,0.5734908236966757,0.6683645772359714,0.5826148240840121,0.5268835291730478,0.47902036987501484,0.49752340266886586,0.48904197664167426,0.49104958308800584,0.4184754708484409,0.44421794073372284,0.4264690542835437,0.03619092247950117,0.028921114696343092,0.035618700387791316,0.029169138256436352,0.02430764843749991,0.023349570598187444,0.02404119531249993,0.023847429381688465,0.022089627187954593,0.021100511655934278,0.022152764222478506,0.02119419184837173
bricks,0.920890748031501,1.4847789695579403,1.0401082677165392,1.4409448818897657,2.0486875000000033,2.491055681531879,2.485312500000005,2.441861929957174,2.7312627032520354,4.070694588969816,3.6296366869918786,4.069328824141517,0.9805176447414001,0.9647938038516399,0.9823457131861848,0.9657821036788787,0.8997075070237762,0.8999755049143815,0.9069988695228056,0.9001435746351739,0.8214453612784656,0.7538742000001325,0.8148293524018682,0.7463474771820893,4.439222440944892,8.05964411928825,4.046875000000006,7.830677661355346,22.791312499999968,22.973167044595602,21.51206250000007,22.921075837742485,40.4812627032521,56.95141779396461,43.26530741869923,58.61537460978147,0.1456968513195872,0.1213885637804271,0.13317834107517193,0.1222442311871956,0.11479618487780929,0.10410027584414895,0.10073937599072226,0.10468070976795926,0.10821403761924538,0.0913264656084474,0.09015349490174741,0.0915048336697036,0.7045262762231909,0.566814123615489,0.6372442544400979,0.5734635012160487,0.5445658519123091,0.45585937916022296,0.43924225992667465,0.45991660104694637,0.4976904699499804,0.3625598568810917,0.35995982763753376,0.3633294763335041,0.0212275724844419,0.014735183416674819,0.017736470531534824,0.014943652058548525,0.013178164062500173,0.010836867430827903,0.010148421875000108,0.010958050997523722,0.011710277937859455,0.008340523320530925,0.008127652642999398,0.008373134584920124
bricks,0.3919168307086617,0.689503379006758,0.5585629921259847,0.6581933163866328,0.7445624999999998,1.0329428067523303,1.1686874999999992,0.9879692617787844,0.8138973577235775,1.4652705515088462,1.5638973577235775,1.441011966701354,0.9818722432070516,0.9573968900093206,0.969601757940031,0.9615533764255197,0.9501021341469951,0.8981529511204069,0.8577016344921625,0.9090921456459861,0.9451753755694544,0.7564887115235509,0.6787135174698057,0.7647098974902283,0.550381397637795,1.3318246636493276,0.9847440944881887,1.2030504061008127,1.5161874999999996,3.1960821365583225,4.6583125,2.8698034769463323,1.6670477642276424,7.52328303850156,9.475990853658539,7.182427159209152,0.30718472548389225,0.26988390479055385,0.29466838249349575,0.2740956903810953,0.25020168427190903,0.24478054106746364,0.24461254439419078,0.24773954500054127,0.2438216078055543,0.23092303670245798,0.2333231410470732,0.23041459294388697,0.8161809927774154,0.7076919128021046,0.7582901416090582,0.7173246031147105,0.6785335971190004,0.6242625155529242,0.613967536528638,0.6338097742547755,0.6558865784820482,0.5672130183031783,0.5685783470005076,0.5681466274351182,0.09436245557061423,0.07283732206499673,0.08682945564133311,0.07512844748548927,0.06260088281250006,0.05991751328528025,0.05983529687499996,0.06137488215707521,0.05944897643288554,0.05332544887988475,0.054439688148072415,0.05309088464149713
bricks,0.6288754921259864,1.1659743319486635,0.8546382874015778,1.1176142352284715,1.327812500000001,1.9387755102040807,2.040250000000003,1.8668430335096975,1.5735518292682904,3.02568938605619,2.9804369918699254,2.9667663891779377,0.9884030813260951,0.9697670263700942,0.9803722467157158,0.9712230418136255,0.9467264483095789,0.9131278645231805,0.8897005413239063,0.9160658443627147,0.9248547190276759,0.784451239479868,0.774092852690087,0.7864468182121531,2.5103961614173262,6.578089156178332,4.273191437007881,6.206956413912838,11.4788125,18.86671705719325,24.025374999999997,18.03363567649279,16.115980691056933,46.54858220603537,49.05957825203246,45.58630332986475,0.2644825930031942,0.2366896858500717,0.2566885656150123,0.23742807238431798,0.2230342077182331,0.21625617138933007,0.2174865656770552,0.2157422302471109,0.21736715661221617,0.20841446304731867,0.2121103801795955,0.20825927159114163,0.7876186273864874,0.6685560900779517,0.7306980428814055,0.6763134466434234,0.6622575015498321,0.5779567054454872,0.5775477316407693,0.5852070128593099,0.6312691554315261,0.5109499562168944,0.5214133488343528,0.5168041809721893,0.06995104200169329,0.056022007387805633,0.06588901971749246,0.05637208955613294,0.04974425781249994,0.0467667316639713,0.04730040625000005,0.04654470991199741,0.04724848077367971,0.043436588407302155,0.04499081337993254,0.04337192420367289
bricks,0.7266855314960662,1.3591047182094385,1.0288508858267744,1.3280426560853138,1.6192500000000012,2.322121441169059,2.5141875000000034,2.2903754094230258,2.1384654471544713,3.8723335067637867,3.7222433943089492,3.9203303850156095,0.9861736374281682,0.9696471122748069,0.981832762533416,0.9699553745955035,0.9316351549495344,0.9125104922257234,0.8994447048441991,0.9118313609341174,0.8817856610672272,0.7758924463320539,0.7915115238793382,0.7656774982805824,3.2997662401574845,7.277140554281126,4.370509350393702,7.198214396428809,16.18787499999996,21.005920886873312,24.468687500000005,21.144872763920347,27.836128048780488,53.96689646201868,51.279280995935,56.306776795005185,0.18257561045479595,0.15347392775612334,0.1665734234376975,0.15530476639879853,0.14860391986754545,0.13548356041328058,0.13315868118526797,0.13740952977213872,0.14254998856677265,0.1187176036395034,0.11850905284676441,0.11912605923913329,0.758987440521683,0.6026744957876151,0.6618289055294028,0.6104855254523179,0.6178856239266084,0.5017820333245792,0.49057580837546705,0.5091095620681362,0.5764418252497694,0.4078236132727806,0.4173078834761186,0.4125576091654727,0.033333853532941396,0.023554246500891763,0.027746705395754467,0.024119570466185382,0.022083124999999867,0.01835579514225905,0.01773123437499984,0.018881378872200278,0.02032049924038701,0.014093869413906232,0.0140443956066372,0.014191017989845494
bricks,0.2666707677165357,0.39438278876557764,0.30880905511811046,0.3937007874015752,0.5332499999999999,0.5469891660367847,0.5568750000000001,0.5519022423784324,0.5743140243902436,0.636966701352758,0.6230309959349591,0.6416493236212282,0.7492802200933658,0.6074565440342993,0.7227051051085629,0.6215592905744853,0.35099392839257354,0.3535126019100654,0.3770789004529791,0.37997801643584594,0.2635326764461797,0.16558513422409077,0.21691123183402966,0.16818131927537536,0.3155142716535433,0.4929629859259718,0.34793307086614156,0.47529295058590143,0.821125,0.8138070042831944,0.7806250000000001,0.7805492567397325,0.9366107723577237,1.0567117585848076,0.9846925813008127,1.053720083246618,0.5187680476513677,0.4729039086025116,0.4989978662843511,0.4717213703864976,0.43866943704798916,0.43728949884449,0.4349232780761449,0.4350697827621652,0.432848368021864,0.4240782962979607,0.4269645402721633,0.4232862833152609,0.8711525634786546,0.8119038459282736,0.849438397406206,0.8108106591656504,0.7557775775585274,0.7483336246627434,0.7414195138729385,0.7434051387508149,0.7412818435616881,0.7152672372787845,0.7189744889961969,0.7130230603411651,0.26912028726401177,0.22363810677153265,0.24899887055633516,0.22252105127931524,0.19243087499999975,0.1912221057996652,0.18915825781249965,0.18928571587271759,0.18735770969919102,0.17984240139098093,0.18229871864981975,0.17917127764284735
bricks,0.8000123031496097,1.5468410936821866,1.1946358267716577,1.4736189472378964,1.8296875000000004,2.6664777021919894,2.964750000000018,2.5464222726127477,2.4369918699186983,4.380723204994786,4.366552337398376,4.308922996878241,0.9901228573175253,0.9732341366625488,0.9819138345355068,0.9746455561364592,0.952031993243861,0.9240503110156697,0.90124058483736,0.927350522431779,0.9166401469988446,0.8097397675137424,0.7964386271112326,0.8101828267701258,3.212782972440956,8.735383470766966,5.895915354330727,8.275900551801113,15.635187499999995,24.924981103552543,32.52824999999995,23.846371882086146,27.230691056910477,63.17273673257012,67.77381859756103,63.0117065556711,0.17064222350466182,0.1447557380306939,0.15751894980069575,0.14624286394834954,0.13577759272980144,0.12524006952816918,0.12475115856175463,0.12653106000938646,0.12841828627936797,0.11412874497744013,0.11477825821987492,0.11465539101669231,0.7326628334813525,0.5790181727512187,0.6411471180698106,0.5889094351425042,0.5732453410471782,0.4732735314847903,0.4710545033376506,0.4834700440840703,0.520971706930488,0.38544403522475956,0.40389664439748946,0.39523310971806075,0.02911876844261496,0.020954223692810876,0.02481221954631411,0.021386975255815472,0.01843555468749983,0.015685075015420654,0.015562851562500046,0.01601010914709896,0.016491256250929707,0.013025370430125565,0.013174048559988286,0.013145858689190609
bricks,0.8905634842519727,1.462954925909851,0.9932332677165396,1.3740467480934961,2.0564375000000013,2.4698286722096254,2.3750625000000047,2.339884101788863,2.7599720528455296,3.9295005202913553,3.435658028455288,3.840660770031216,0.9818635431289191,0.9659762439134453,0.9826102041061678,0.9671956329556077,0.9054424659350817,0.9036972211819535,0.9078228679706248,0.9050537966484747,0.8337114845642013,0.7664968209786864,0.8091297439655717,0.7596621654171838,4.378629429133863,8.225184450368904,4.212229330708664,7.920143840287698,22.697312500000002,23.24420508944316,22.3694375,22.86885865457296,39.73901168699187,56.12682101977112,46.321836890243894,57.541233090530646,0.18111537950558448,0.15638376952687794,0.17342933567270324,0.159202278455305,0.14585424552442725,0.13805314533945767,0.14269134631259187,0.14132108863042084,0.1387339945424211,0.12985843411252063,0.13606911574231106,0.13198189331842541,0.7224427064675095,0.5932587326626103,0.6742587507228892,0.6115689995750736,0.5658277512727097,0.4880119440492073,0.5010145166289748,0.5057253413718766,0.5178384159779388,0.4103290469877432,0.4405493364663698,0.42412144742804386,0.0328027806934519,0.024455883371435675,0.03007773447187518,0.02534536546536047,0.0212734609374999,0.019058670938117427,0.02036082031250002,0.019971650091687262,0.01924712124169653,0.016863212910155863,0.018514804258894447,0.017419220163916227
bricks,3.833169291338584,5.6748093496186955,4.736774114173213,5.4742389484779075,6.0803750000000445,7.632590073066277,8.145937500000032,7.404698916603693,6.79986026422763,9.242390738813693,9.210238821138178,8.933012486992695,0.8628368894441049,0.7015557741188155,0.7835084462389995,0.7245995777855034,0.662190485747002,0.4676982578206002,0.3933388895920312,0.5043713763390497,0.5776683297301906,0.24045471951780809,0.24160321823452505,0.28784513114010035,26.964936023622133,58.566867133734284,42.538570374015784,54.060016120032216,66.33987499999988,104.05889392794137,118.14681249999998,97.01379440665124,82.9279090447155,146.4399713839753,145.77947154471536,137.78941207075985,0.045444943613311584,0.038032566017802485,0.04123280870338893,0.038504772567359666,0.03742962145814423,0.03377798347532213,0.03295178769808981,0.03407071342210599,0.03588775494849523,0.0318732873521383,0.03195593884200215,0.03216693726156561,0.2557320067907037,0.18395828946189757,0.21710180107646213,0.18855017397732232,0.17671077565918927,0.14268879653109198,0.13291441451426225,0.1475663192226105,0.1617605094753332,0.11730166429624911,0.11537472693768222,0.12254851102734667,0.0020652429000170692,0.0014464760778985046,0.0017001445135702664,0.0014826175104640936,0.001400976562499971,0.0011409521676591353,0.001085820312499983,0.0011608135130912736,0.0012879309552432435,0.0010159064466319792,0.001021182027273782,0.0010347118527894979
bricks,0.3896407480314968,0.54739909479819,0.3796751968503942,0.4991009982019963,0.8003750000000002,0.8072562358276631,0.7469999999999999,0.7108213655832694,0.9117123983739832,0.9711238293444334,0.8813516260162599,0.8638137356919876,0.835453818684626,0.7488540950240493,0.8630164099295686,0.7825303421528615,0.5032117599733748,0.5014827483516493,0.5944955889918287,0.5911101978389768,0.41499213697008897,0.33138002282255963,0.43701638026585,0.4075974305619832,0.5759104330708663,0.866451732903466,0.47367125984251957,0.7511935023870052,1.7394999999999994,1.7076089695137322,1.386125,1.404320987654322,2.057291666666666,2.278095733610823,1.9109502032520322,2.0299167533818943,0.3602250222472611,0.32108659869574574,0.3556605736692158,0.3305396056833228,0.28435134517002036,0.2845223425015446,0.29049853431213735,0.2957150272701316,0.27140730596829404,0.27004450012343534,0.2786894747223184,0.2809980411412078,0.8210271253606256,0.7529613752828345,0.8188598300976715,0.7722142964794673,0.66850497080941,0.6634481672509265,0.6784294481361816,0.6963514687963177,0.6316546202514073,0.6130029471083563,0.6398437502941591,0.6521124378832514,0.12976206665303977,0.10309660386200287,0.12649444366271564,0.10925643092528652,0.08085568750000005,0.08095296338256627,0.08438939843750005,0.08744737735337467,0.07366192573296718,0.07292403204691608,0.07766782332100175,0.07895989912519591
bricks,0.5809547244094511,1.3011966023932044,1.0208538385826795,1.1792423584847187,1.2081250000000008,2.2406777525825117,2.5302500000000054,1.9945200302343138,1.4726880081300808,3.636641519250776,3.793064024390256,3.2674947970863673,0.9907594570245298,0.9741427387090437,0.9841701409471998,0.9787871692061726,0.9681322497148904,0.9287872852000227,0.910431445191573,0.9414796818213074,0.9592771103469293,0.8267823002440879,0.8106821897062406,0.8525617424679797,2.614419291338589,7.350548701097414,4.507197342519689,6.032364064728133,8.987250000000001,20.336545729402864,25.800499999999996,16.719261778785597,11.414126016260163,49.80261446409993,55.162220528455194,42.420590530697176,0.22771434934816015,0.19487001935943404,0.20796861400712613,0.19654091137767002,0.19213577555988923,0.1725831167257731,0.16893161523231778,0.17646577418203638,0.18391911574419118,0.15769506797639027,0.1538643875604791,0.16080044181298445,0.7946116616074644,0.6249720471458574,0.6719534955526506,0.6383774165273657,0.657717550682214,0.5171527594177694,0.49852347407149866,0.5366041866867168,0.6145853576905221,0.43184072881189967,0.42557421808737816,0.45370454894611795,0.05185382489905593,0.0379743244451462,0.04325094441204502,0.03862832984516514,0.03691615625000013,0.029784932178781823,0.028537890624999857,0.031140169457665456,0.033826241136125194,0.024867734464078348,0.023674249759361318,0.025856782087250996
bricks,0.560962106299215,0.8570277140554281,0.6871924212598455,0.9220658441316886,1.1603124999999976,1.3710632401108576,1.601312500000003,1.5019526329050132,1.415205792682926,1.9776925078043766,2.2389481707317067,2.258844953173778,0.9898889892649392,0.9859511446182937,0.9916748314639066,0.981608375422919,0.9598517056424256,0.9646351069718775,0.9546926890594232,0.9510594227226608,0.9413599813181155,0.9322966965006013,0.9113758951781196,0.8940037190500737,2.1153420275590555,2.9652799305598725,1.7600270669291342,3.8270196540393213,8.397187500000008,7.484063995968751,9.563437500000006,10.108150667674453,12.287538109756092,14.580840270551484,18.73882113821136,21.697840790842907,0.26536817082060277,0.2352247036822956,0.25005568189870947,0.2353085879697232,0.221002987112165,0.21029209563169188,0.2086927316654798,0.21099816453162284,0.21259489096961307,0.20055584983477484,0.20134826786213494,0.2005835180919773,0.8040457559240195,0.701432368095825,0.7411073655479374,0.6973995950582794,0.6826023575661043,0.6149895707829544,0.5955862907052627,0.611533106481042,0.6460603996167013,0.5535203890543021,0.5485544732440567,0.5515484106624761,0.07042026608467261,0.05533066122242376,0.06252784404982857,0.05537013157230496,0.04884232031249978,0.04422276548516864,0.04355265624999995,0.04452022543571378,0.04519658766638166,0.04022264890294876,0.04054112497108204,0.04023374773015459
bricks,0.3110851377952765,0.7886415772831558,0.7062623031496081,0.7709095418190839,0.6398749999999995,1.2354497354497367,1.492750000000002,1.1969639707734943,0.7506986788617885,1.6850936524453743,1.7740726626016257,1.621748178980233,0.9898058821589298,0.8915701500249428,0.8954924410673014,0.8897366071031136,0.9678733033694472,0.711244536638919,0.5219311685270014,0.7029716729006382,0.9505332744735095,0.4261505979069461,0.2905659377982396,0.399624367175493,0.4006520669291339,4.0580321160642425,3.9223056102362226,4.1275962551925165,1.262624999999999,10.037163013353485,15.702375000000009,10.320672713529854,1.946074695121951,18.31386576482827,21.948361280487795,19.04903746097815,0.3766768839908544,0.3350913756402435,0.3551616280860314,0.3389650545775672,0.31398556893589924,0.30642093990370567,0.30453192823167186,0.311759442133942,0.3056088669488857,0.2962762951579915,0.29829881264171115,0.30396186121988944,0.8522881428361511,0.7273037311301156,0.7632014337546015,0.7374176775866155,0.7210187782888148,0.6459482881239915,0.6237207327645794,0.6625343613455341,0.688813709971303,0.5853147263649389,0.5869759959025034,0.6114298565212595,0.14188547493305959,0.11228623002847075,0.1261397820647205,0.11489730822477312,0.09858693750000033,0.0938937924114704,0.09273969531250013,0.09719394975966675,0.09339677955778175,0.0877796430725453,0.08898218162345468,0.09239281307625932
bricks,0.5195004921259861,1.1022382044764107,0.9016978346456723,1.064170128340257,1.0497499999999997,1.807697152935249,2.093562500000002,1.7204585537918895,1.2839176829268286,2.857700312174809,3.131415142276424,2.7665842872008257,0.9916259453035985,0.975810986573847,0.9827422034994319,0.9765105290590392,0.9746456310626189,0.9354979907533566,0.9117737726611249,0.9386006617950329,0.9654919216431738,0.8478529096876929,0.8166655829240981,0.8539708224318806,1.9713951771653566,5.719883439766894,4.088213582677168,5.554963109926237,5.9573750000000025,15.31412194507429,21.120687500000003,14.583270345175094,8.106707317073177,36.41194068678454,44.36121697154469,34.99525234131119,0.1982939312787506,0.16587156103862152,0.17538354452641883,0.168288495649459,0.16455211465520592,0.14719646618562895,0.14326862335312618,0.15126920610984712,0.15700204555330766,0.1353308365604687,0.1303837369530832,0.1392992374554903,0.8090586130179727,0.6619236750712828,0.7026822451181975,0.6718197246928536,0.6729173001878505,0.5634544172566285,0.5460990669138425,0.5817509988438749,0.6317298287005662,0.49125058353014833,0.4779871560828166,0.5102537132471698,0.03932048318198187,0.027513374761389146,0.030759387690650338,0.028321017767957975,0.027077398437500035,0.021666799657537008,0.020525898437499933,0.02288237271710341,0.024649642307922895,0.018314435324156293,0.01699991886185079,0.019404277555681075
bricks,0.7650098425196882,1.0088040176080353,0.5584399606299231,0.9958459916919853,1.7757499999999993,1.695830183925422,1.2344375000000005,1.646888384983624,2.281250000000001,2.6168054110301737,1.6752413617886197,2.5147632674297604,0.9596584450352024,0.9525499102970628,0.9907292545985217,0.952986414480636,0.7986247572997526,0.8593988711319587,0.9549066188366949,0.8659099127487669,0.6977155296708548,0.6790326824621126,0.9158124196920455,0.7125461703739948,5.0278051181102414,5.7530535061070225,1.2048474409448833,5.913447826895667,24.493125000000017,16.447782816830408,5.900312500000017,16.46321491559589,36.29903455284553,35.75494276795011,11.095973069105707,34.02946149843914,0.36448332481106677,0.3302075441531465,0.3533490376889316,0.3321245950280475,0.303847065252407,0.3000289756926688,0.30352041220484743,0.305429715633308,0.2947130652850889,0.29258404506804403,0.2949897125189933,0.29622159751693183,0.7916348963414616,0.7020433137771545,0.7721202014921638,0.7079358115022285,0.6619573965467209,0.6144863393004001,0.6312508283332016,0.6269818956405951,0.62625697957416,0.5553420379413802,0.5882047064492285,0.5675140896930468,0.1328480940653296,0.1090370222156522,0.12485554243569401,0.11030674662254453,0.0923230390625005,0.09001738625519205,0.0921246406250005,0.0932873111918434,0.08685579084973308,0.08560542342837922,0.08701893049203831,0.08774723483548316
bricks,0.39314714566929254,0.7914935829871662,0.6899606299212621,0.8148676297352592,0.8681249999999979,1.2957294028722577,1.6018750000000022,1.3383093978332044,1.0906377032520291,2.0269901144641063,2.322535569105696,2.1100416233090566,0.9901384246054329,0.9616737337080182,0.9661650885638025,0.9568763295178994,0.9525622369058987,0.8897001261849372,0.8159115459514811,0.8769648682544756,0.9200562389293205,0.7128402744286664,0.6162836590207473,0.6810374907252366,1.0684670275590562,4.126728253456519,3.6541584645669345,4.6397792795585735,5.137375000000003,11.671894683799437,19.18999999999999,13.005102040816297,8.667619410569094,29.20518990634761,38.27273882113822,32.42377731529651,0.43932519641008194,0.4030097100749015,0.42173089147609066,0.40486474523869354,0.38613549071213127,0.3775181377704939,0.38174662326600717,0.3782917130217602,0.37856697072898626,0.36780605674269184,0.37441640982522423,0.37162484418841135,0.8439009584802678,0.7506308393998637,0.7820211438548921,0.7507792272861774,0.7312521749854531,0.6809438944012043,0.6685183261851352,0.6796338768005987,0.7036437455315213,0.6304779481215076,0.6262941015246567,0.6346238586339422,0.19300662820075706,0.16241682641465616,0.17785694482521816,0.1639154619371922,0.14910061718749842,0.14251994434570164,0.1457304843749988,0.14310462014093778,0.14331295132692115,0.13528129537660827,0.14018764794641028,0.138105024818061
bricks,0.54761318897638,1.107818215636432,0.902066929133862,1.0799181598363197,1.2218749999999996,1.9005416981607401,2.187687500000006,1.811854371378178,1.6038490853658531,3.2222294484911473,3.3111661585365915,3.0011056191467134,0.9903832267979239,0.974498386436366,0.9832465213427308,0.9765852989157521,0.9522666294024889,0.9240269231135243,0.9048628739741298,0.9325373921955901,0.9198834189111211,0.800397137234256,0.8015809864707168,0.830418738729838,2.2903543307086633,6.095108190216389,4.001722440944889,5.596503193006401,11.374124999999994,18.237654320987613,22.92643749999998,16.197089947089914,19.07615599593496,48.27009625390217,48.246506605691,41.039607180020774,0.27026249237510064,0.23568573041835195,0.24643934984932775,0.2359028948115744,0.22650679487600345,0.2116926952644887,0.20945914353997555,0.21395683851008668,0.2166425763686617,0.20096527516330742,0.19859225936752722,0.20274517574611992,0.8118734114046761,0.6786112757984583,0.7111307633035169,0.6770489342861978,0.6877154763427142,0.5803220068724692,0.5548647151423178,0.5855382915555657,0.6473516552613058,0.49998863534250676,0.49101701682343474,0.5106946758137411,0.07304181478480135,0.05554776352283207,0.06073235315415936,0.05565017578048073,0.051305328124999904,0.04481379722834368,0.04387313281250008,0.045777528745231305,0.046934005895651415,0.04038704182146387,0.03943888548069921,0.04110560628832505
bricks,0.8778297244094522,1.0921321842643699,0.5754183070866161,1.112778225556455,2.050875000000005,1.8352229780801188,1.2711250000000014,1.8417107583774233,2.8339684959349656,2.9305411030176827,1.6674923780487783,2.8718132154006266,0.947484707402769,0.9408635866767069,0.9889802729105096,0.9380242500647884,0.7150402056987506,0.8225055909267168,0.9455039518192739,0.8194366976230562,0.44468777029439993,0.5139667523746753,0.8994981055752272,0.53229633462485,5.8111466535433065,6.412734825469665,1.2406496062992145,6.8552297104594295,30.30812499999998,18.61048122952883,6.082375000000008,19.474363819601926,55.48056402439007,46.828563995837605,11.13281250000001,46.9244927159209,0.35851538391547677,0.32292748366811624,0.3450994646924723,0.3248066375568464,0.3025979051274157,0.2942535480892647,0.29588919220292637,0.29755621946456373,0.29587185733154725,0.28606507380441476,0.2864353905104019,0.28889781152736366,0.7564950591527396,0.6801677857658445,0.7672383715007601,0.6824294674756964,0.6274339710279738,0.5972361969796057,0.6300928416778078,0.604375859826806,0.5975200573284748,0.5465987189652358,0.5951446516903267,0.5602518763878638,0.1285332805040617,0.10428215970822147,0.11909364053103096,0.1054993518009846,0.09156549218750046,0.08658515056312122,0.08755041406250029,0.08853970374204362,0.08754015596081945,0.08183322645072527,0.08204523293684643,0.08346194550530014
bricks,0.48492864173228434,1.024676049352099,0.9192913385826813,1.0776241552483106,1.0715624999999989,1.732930209120681,2.2500625000000003,1.8343411438649475,1.379446138211378,2.8340270551508864,3.2587017276422774,3.0463709677419337,0.9923687535738445,0.9755869960057137,0.979293838179911,0.9723055700364415,0.9629438981597057,0.9307606771997682,0.8875096867911662,0.9209117941976688,0.9351471633588211,0.8252504386051532,0.7709095176980564,0.7942671299037654,1.4758243110236247,4.733151466302953,4.022760826771663,5.368528737057483,7.156187500000011,13.397959183673446,21.804562499999992,15.30007558578984,12.51930894308944,33.681581685744035,44.2700076219512,39.667859001040604,0.32554797598518004,0.2939995738273301,0.3146195975839283,0.2942071038621153,0.271758825753646,0.26656200091853827,0.26513087864769797,0.26711246788895576,0.26530780645677465,0.25845769678644176,0.2574532866451105,0.259164496548606,0.8130738618037222,0.685054287636683,0.717199673462925,0.6803228345531754,0.6724366556817042,0.5879560758141678,0.5574112534066918,0.584256766145657,0.6326276216780458,0.514974366595751,0.5029583942259875,0.5109329884495843,0.10598148466804737,0.08643574941065174,0.09898549118387298,0.08655781996293349,0.07385285937500052,0.07105530033369478,0.07029438281250035,0.07134907050172842,0.0703882321669054,0.06680038102815226,0.06628219480436945,0.06716623627129241
bricks,3.5572096456692903,5.071548143096286,4.23622047244094,5.111104222208449,5.60037500000003,6.853741496598648,7.463000000000041,6.911753590325019,6.353595020325204,8.67384235171693,8.787347560975622,8.786615504682603,0.888958367966022,0.777750980361128,0.835444436477965,0.7738671241394153,0.7216221716289064,0.5816884878951556,0.4852790770906086,0.5751585510151441,0.6403361041031069,0.3325722644144541,0.3235497479508737,0.3243445024317711,23.224655511811072,46.59241118482245,34.4443897637796,47.40771281542554,58.43137499999993,88.02683295540423,108.14800000000017,89.40961199294509,75.72275152439032,141.5554760665977,142.8597560975603,143.29454994797118,0.043398390186120774,0.037318667268890035,0.040819951852686956,0.03728002032180364,0.03590101408734831,0.033422919891679906,0.0329655359807783,0.03344060243913855,0.03423744421540211,0.03145544815059141,0.03123618345004266,0.0313543004214065,0.2655954354767019,0.19722876096138964,0.23589100824198142,0.19175507717566778,0.18468868179723927,0.15706350457345236,0.14910072988875872,0.15342215160506012,0.17042494275604453,0.132274502636652,0.12987369019126033,0.13020681653773009,0.0018834202707467837,0.0013926829267261246,0.0016662684692556812,0.0013897999151940925,0.0012888828124999817,0.0011170915740856525,0.001086726562499989,0.0011182738914925195,0.0011722025864027714,0.0009894452183545446,0.0009756991565247191,0.0009830921549158118
bricks,0.6088828740157507,1.150660301320605,0.9654896653543354,1.151280302560605,1.2760624999999983,1.9402242378432817,2.3615625000000087,1.9190602166792627,1.4930132113821117,3.1427549427679473,3.482977642276427,3.0385015608740833,0.9917633804347391,0.9770964540693228,0.9827783935000421,0.976839775803015,0.9660196712415593,0.9334812645896239,0.8987323604949983,0.9348086843356913,0.9560861156196399,0.8254889594203997,0.7826954120826353,0.8341884779839731,1.9974163385826795,5.578337156674329,4.192236712598434,5.643313286626589,8.248437500000007,16.27960443436631,24.864562499999927,15.966301335348904,10.659425813008117,43.04025754422468,53.79458841463411,40.953433922996844,0.23353074597868076,0.20925023479668575,0.22570936914775855,0.2072403925062622,0.18988913294999238,0.18721793010583393,0.18471064787255786,0.18557690430850723,0.18556918656470017,0.17522503871644712,0.1748983167784996,0.1751503371020149,0.7751342237218879,0.6593787467930743,0.7033935863985438,0.6589268357384417,0.6268758085015089,0.5667752468173625,0.5468741400477467,0.5669377639014643,0.5927241764470215,0.48654732310565624,0.48382829729309856,0.49567115239845705,0.05453660931735912,0.04378566076246812,0.050944719321079135,0.04294858028614961,0.03605788281249988,0.03505055335311292,0.03411802343750006,0.03443878741272885,0.0344359230022845,0.030703814193180398,0.030589421211952395,0.03067764058694946
bricks,1.4621062992126022,1.620497240994482,0.7301304133858288,1.6065472130944267,3.2820000000000036,2.7013731418493334,1.6092499999999976,2.6130637440161224,4.284679878048789,3.952588449531737,2.070503048780489,3.7903876170655564,0.9141137218049074,0.9013827708964821,0.9829908625969934,0.9075520350191196,0.5857804699166819,0.7273642374274477,0.9187655434661532,0.7482691543017808,0.30973738050453886,0.42213532419785593,0.8655634884445385,0.4514995338290413,8.798228346456696,10.128278256556529,1.735174704724411,9.491598983197981,42.998874999999934,28.276581002771504,8.337999999999994,26.096056941295068,72.49047256097548,61.037916233090556,13.873221544715449,57.88859261186267,0.16295778257417903,0.1525674153388324,0.18298098891929038,0.15141490237687633,0.12645385769125425,0.1303937639705121,0.1413530873822711,0.1306065194599397,0.12112312666325037,0.11999630219504138,0.1298254955891841,0.12214130644523084,0.5969565263488734,0.5624178958057178,0.7123862428679837,0.558257856379221,0.4320649315383616,0.45610235044870173,0.5351221814339794,0.4581927107286481,0.3979841659011658,0.3996718794531844,0.475256479644694,0.4110327898068278,0.02655523890149341,0.023276816223171792,0.03348204230588147,0.022926472661798987,0.01599057812499998,0.01700253368239762,0.019980695312499963,0.01705806292543961,0.014670811812681794,0.014399112540483695,0.016854659304977263,0.014918498740147789
bricks,0.63225885826772,1.1271622543245103,0.8789985236220518,1.1266662533325065,1.3226250000000002,1.9079113126732163,2.1908125000000065,1.872511967750062,1.56840701219512,3.0811654526534844,3.2944613821138238,2.9740504682622224,0.9921163204779918,0.9777484744362004,0.9843701075480624,0.9784888574100113,0.9653145132021042,0.9350892575764955,0.9100275647782053,0.938450905866225,0.9504762587071297,0.8390130532992358,0.8108098366051463,0.8460600778921953,1.9317175196850407,5.477462954925921,3.8502091535433145,5.2962985925972035,8.49,16.051146384479676,22.410687499999984,15.224741748551233,12.119601117886177,40.191987513007334,47.67898882113817,38.45206815816856,0.2378360160989417,0.21500855472871244,0.23681049501044693,0.2143423915105447,0.1955070331215733,0.19255847757756248,0.1925212447692461,0.19150482326352467,0.19001927190656934,0.17995085101422179,0.18240686690938454,0.18074085767777698,0.7659902135755282,0.656325185688216,0.7138683130807115,0.653684927087474,0.6216436061467135,0.555013179776376,0.5392058547303541,0.5566628193886918,0.5865944422580379,0.46614804700067436,0.4718592351313121,0.4773033553245363,0.05656597055381605,0.04622867860652974,0.05607921054709292,0.04594266079845963,0.03822299999999996,0.037078767286988626,0.03706442968749996,0.03667409733319382,0.036107323695902735,0.03238230878074264,0.033272265095697924,0.03266725763409843
bricks,0.6551427165354361,1.1771963543927109,0.9288877952755941,1.1352222704445423,1.3540624999999986,1.9829931972789114,2.2903125000000033,1.8870622323003268,1.5642149390243916,3.1391779396462,3.358930386178866,2.956360561914667,0.9900577585077166,0.968043100378162,0.976535595763799,0.970235447341353,0.9587719318606004,0.9088607660905323,0.8708060289176829,0.9171924897373749,0.9453859603089606,0.7730244917092947,0.7334474315458805,0.7956595535053188,1.8772145669291358,6.038378076756172,4.432209645669298,5.6242792485585165,7.786312500000009,17.227261274880277,24.401562499999986,15.652368354749258,10.30735518292682,42.84105098855363,50.252604166666686,38.56978407908438,0.2253031886503657,0.20479975521369972,0.2295371423332983,0.2040833417696681,0.18170341992516267,0.1812564340825761,0.18381635706595859,0.1797809375931834,0.17767109077357035,0.1709172223897783,0.17369842659369558,0.17193927304795112,0.7494062499906494,0.6423215740592413,0.7025914731769168,0.6458519801102354,0.596572840241337,0.5378413026308194,0.5276577677371171,0.5401269854058687,0.5686531159587466,0.4575619296413523,0.45839207607892457,0.46835457557851884,0.05076152681602228,0.04194293973559132,0.052687299710536845,0.04165001038787516,0.03301613281250001,0.03285389489633126,0.033788453124999986,0.0323211855218841,0.03156701649667027,0.029212696909436932,0.03017114340112545,0.02956311361625789
bricks,1.3582677165354382,1.5598611197222383,0.8046259842519712,1.5444850889701802,3.02993750000001,2.5643738977072257,1.8133750000000004,2.507873519778279,3.8726498983739828,3.612252861602499,2.3572789634146307,3.630398022892815,0.9406795093822674,0.9285305369245055,0.9821290874197646,0.9297602366245956,0.7236187779666456,0.8090273682840459,0.9087021183985466,0.8142961095160735,0.5528379682783384,0.6321401212202562,0.842943857117827,0.6167544235771303,7.55019685039372,9.104780209560426,2.2662401574803144,8.943703887407791,35.589937499999984,24.487276392038297,11.592624999999995,23.80102040816325,57.42130335365862,47.513267429760724,19.933879573170724,49.59566857440164,0.19290995299778915,0.17846842042160066,0.20580209115707834,0.17724603647050682,0.15455460200201052,0.15664396389946225,0.16159870242362706,0.15667969789965924,0.15155887403048493,0.14790691911155085,0.15116869918699227,0.14788941653895984,0.6202450658854566,0.574062397912411,0.6983396799035444,0.5751473116158488,0.458899052970736,0.4728033201461217,0.5191684165741072,0.4761195692126222,0.42609122827455365,0.40766221826536475,0.4628857405664842,0.414989651269315,0.03721424996560922,0.03185097708778121,0.04235450072462638,0.03141615744450424,0.02388712499999987,0.024537331426136035,0.02611414062499997,0.024548527733928488,0.0229700922973884,0.021876456721070844,0.022851975613887358,0.021871279524233973
bricks,1.180118110236224,1.7249674499349,1.3091781496063026,1.8770537541075092,2.526875000000011,2.9095490047871007,3.287562500000008,3.191043083900232,3.1808943089430914,4.385861082206025,4.751524390243905,4.896657127991659,0.9825402089536043,0.9692685309544327,0.9805011180234334,0.9624890603934344,0.9216369079146155,0.9146538844319692,0.8860579930167524,0.8935017647214155,0.870521511679527,0.8081131882863005,0.7709435579296497,0.7509471836555432,5.042322834645673,8.91859383718768,5.6620324803149655,10.888399776799567,22.605624999999975,24.884731670445944,33.40706249999997,31.054358780549247,37.32469512195126,56.43073621227883,67.80945121951218,73.20558012486984,0.10642615542855573,0.09201534884606966,0.1062345800542666,0.09135799794819194,0.0803749027993183,0.0765304307973128,0.07666541552421066,0.07607446799927337,0.0754415967651914,0.06899398704154096,0.06853130739841187,0.06845249311472949,0.622268536995105,0.5110869334738123,0.5914858372498308,0.5020842467040286,0.4376052124752705,0.38785540709779875,0.38397435832982957,0.3841257300366335,0.3932246532430335,0.30979242012743013,0.30721376331795114,0.30552232926459183,0.011326526559303102,0.008466824423263892,0.01128578599930638,0.008346283789101842,0.006460124999999865,0.005856906838022284,0.005877585937499881,0.005787324681372467,0.005691434522481736,0.004760170247888322,0.0046965400937356225,0.004685743813622088
bricks,1.0949187992125988,1.42240684481369,0.91775344488189,1.405170810341621,2.1995624999999985,2.2743764172335603,2.146312499999999,2.2353867472915083,2.45344258130081,3.0530046826222703,2.9958079268292708,3.0002601456815845,0.9807057514482511,0.9693836205349623,0.9854040151450143,0.9707473417609935,0.928995549562746,0.9222714628415658,0.9235704725927371,0.927171305535285,0.9165524128557965,0.8579811302054559,0.8517559024972563,0.8659190907023068,2.663693405511811,4.2272924545849095,2.0417691929133865,4.040548081096164,9.800187500000002,10.676114890400598,10.628062499999997,10.008755353993445,11.521150914634145,19.480424037461,20.487550813008124,18.381763787721123,0.12563229757471406,0.11488666474282452,0.1414365979824772,0.11537233564009218,0.09603392955096665,0.09669726562688981,0.10170511141284899,0.09693462123141651,0.09216408519725144,0.08947905380791688,0.09137815724886938,0.089559141774165,0.5845563058777062,0.5064119105842161,0.6340527193798964,0.5096101261561599,0.3951207051652758,0.38784233476752966,0.4142302451179028,0.39010041950157426,0.3553593904725151,0.3168929935084643,0.3304757526124697,0.3218390231910003,0.015783474193901505,0.013198945735730161,0.020004311248856876,0.013310775831050083,0.009222515625000025,0.009350361179717284,0.010343929687500027,0.009396320793278184,0.008494218600246224,0.008006501070360083,0.008349967622199101,0.008020839875324988
bricks,1.4810531496063077,1.9627999255998516,1.1460999015748063,1.9374418748837494,3.401500000000009,3.3857394809775667,2.836125000000006,3.3291761148903998,4.491044207317072,5.269640998959404,4.11255081300813,5.251625910509872,0.9541357288416689,0.9344168325106996,0.976136774846911,0.931933542125898,0.7782953655637348,0.8093618348846839,0.8661027015957424,0.8028355906787129,0.6575783544110568,0.5566739458925606,0.7192568578873448,0.5507514338624139,10.463951771653583,14.775869551739108,5.426980807086636,15.298964597929224,50.566999999999986,42.126732174351226,29.464500000000005,43.44658604182408,78.08669969512202,93.49830905306982,59.25355691056921,94.53466441207088,0.13814212840097523,0.12378478086835516,0.14489279356308624,0.12339066794926982,0.10325075665582387,0.10330538030619316,0.10890785956486382,0.10382519845583574,0.09291966479696466,0.0922404009550933,0.09802935883639344,0.09021111826859946,0.6124370855621759,0.5303283911635698,0.6407385940894806,0.5343509615515415,0.43268095416429986,0.41520608531860786,0.44609296624539896,0.4213226177769341,0.3673152118830377,0.3352021390590223,0.3734131021213143,0.32851702181454845,0.019083247639151528,0.015322671974626705,0.020993921626515127,0.015225256936966965,0.010660718750000157,0.010672001600207202,0.011860921875000098,0.010779671834393677,0.008634064105980273,0.008508291568356375,0.009609755193874388,0.008138045859271237
bricks,1.179195374015752,1.740281480562965,1.2173966535433105,1.6890693781387576,2.6430625000000054,2.962836986646508,3.0362500000000034,2.883030990173845,3.628683943089433,4.784144120707593,4.470782520325212,4.738033298647237,0.9828739738369857,0.9672638116331789,0.982116974602659,0.967997654118741,0.9127638667994914,0.9072509499470635,0.9022780341729902,0.9083630145772426,0.8424803167899564,0.7787939152441518,0.8039222564040859,0.7690980965848736,5.3450418307086744,10.261702523405074,5.609990157480321,10.029326058652137,27.17118750000003,29.173847316704407,30.93087500000005,28.815003779289466,48.97738821138223,70.07342611862644,62.65510670731713,73.10496878251827,0.10888617565838125,0.0929149794636965,0.10701360576973035,0.09328876219104765,0.0804420404701419,0.07570437703344593,0.07451488945170603,0.07596518121841862,0.0734941044527403,0.06418056793900423,0.06437911125433053,0.06403528358433884,0.6228918091452426,0.5198947043261469,0.6081675314473513,0.5261956973119107,0.441468514739687,0.39769716758023627,0.38880313147809187,0.40398081158486465,0.3810473324870537,0.29812515442758836,0.30450642504133146,0.30426135966667806,0.011856199249507858,0.008633193408739144,0.011451911819839263,0.008702793151137842,0.0064709218749999485,0.0057311527020221355,0.005552468749999971,0.0057707087575471815,0.0054013833893103,0.004119145300973138,0.004144669965897468,0.004100517543726695
bricks,0.6433316929133864,0.9815859631719264,0.7122293307086615,0.9690619381238764,1.3027500000000003,1.6203073822121439,1.7416249999999989,1.596119929453263,1.5250889227642275,2.4408168574401676,2.5214049796747955,2.4628642039542132,0.990789528059985,0.9804107967891347,0.9874368218299473,0.9811337225240333,0.968000215305138,0.9456729890212051,0.9259072268211203,0.9481920210151704,0.9576827862244782,0.8538387869498517,0.8220675781038872,0.8598292222183131,0.9586614173228349,2.280860561721127,1.6187253937007882,2.2394444788889603,3.3278749999999997,6.412950365331316,9.784375000000004,6.306500377928943,4.397802337398374,17.07154006243496,22.040713922764247,17.173061914672203,0.17252488273995714,0.1588028215531565,0.18994094704950856,0.16024004914936435,0.1303400300655942,0.13287978634760295,0.13803608563524253,0.1347646034265874,0.12322134827324885,0.11835434926269972,0.1219872067497874,0.11811358830860763,0.7085788133414345,0.614673761176185,0.7151520233885242,0.6200038369607871,0.5179609497206017,0.4886514771527752,0.509528785489819,0.4971197266581428,0.4705877379631145,0.40705435525004763,0.4246118380594815,0.39753192387902336,0.029764835164435958,0.025218336133243667,0.036077563366064214,0.025676873351390704,0.0169885234375,0.017657037619784606,0.019053960937500006,0.01816149833672537,0.015183500670277286,0.01400775198939711,0.014880878610615376,0.013950819743135253
bricks,3.841412401574809,5.503565007130014,4.6823326771653395,5.544609089218191,6.110125000000044,7.468694885361555,8.194000000000038,7.446900982615282,6.8430513211382085,9.787200832466134,9.951283028455277,9.633519771071763,0.9010847066862077,0.8131432975981091,0.8607838501577334,0.8085655569083087,0.749389025937357,0.6581568021280852,0.5882362321663857,0.659758907493307,0.6881649460778514,0.4378704705988648,0.4177180512259192,0.45692074720303705,28.547121062992186,54.041602083204204,40.24557086614177,55.36530473060949,72.31062499999997,99.20742000503877,119.7842500000001,98.73425296044303,89.90567835365846,163.9951873048912,170.17930640243884,158.52581945889762,0.049455524320731,0.040978142281292484,0.04355271517088354,0.04080969484960774,0.04190828900706836,0.03544235696439195,0.03262176708119872,0.03539643076029642,0.03994551690515628,0.02980470920166981,0.02926287234735982,0.0299848228008055,0.2728238198288026,0.19501501560061318,0.22389121078511767,0.19590326084606732,0.1955897794513835,0.15266390708956706,0.1406897885874311,0.1535799695009966,0.17869729757027913,0.11080837145012258,0.11225707294437699,0.115065986881642,0.0024458488858384152,0.0016792081448258507,0.0018968389987561094,0.0016654311937181004,0.0017563046874999667,0.0012561606671913825,0.00106417968749998,0.0012529073105684587,0.0015956443208201257,0.0008883206905961012,0.000856315698017876,0.0008990895983957053
bricks,1.3852731299212677,1.7952135904271809,1.0362327755905545,1.7731415462830922,3.044187500000006,3.0139203829680064,2.503750000000004,2.9698916603678467,3.866425304878052,4.692637877211214,3.6554242886178905,4.587473985431831,0.9791800986306887,0.971180082362374,0.989554160214122,0.9709636339467158,0.9025191413776001,0.9186431005515535,0.9397965702290768,0.9179091636433216,0.845294965093367,0.8112890003313591,0.8743840411852879,0.8116759846317761,8.864111712598445,12.307458614917254,4.486774114173232,12.331762663525321,41.53931249999999,34.70086923658352,25.81725,34.73872511967746,65.91584095528465,80.3824141519251,53.711064532520346,78.84618886576489,0.15797979487598832,0.1417943106983696,0.16453134033862346,0.14231259747267844,0.12379983213841673,0.12161485036231678,0.1253309992579652,0.12271696922933238,0.11820974985698052,0.11078713212382321,0.1135465031229193,0.11190498436379788,0.6346387871895042,0.5600275785320893,0.67389468284241,0.5623998529937217,0.47410690194196187,0.4526636951646233,0.4816961792221773,0.45942414532511777,0.43534692778580003,0.3683031832098884,0.4038339068533126,0.38021287255084285,0.024957615589059342,0.02010562654642577,0.02707056195362394,0.020252875399420604,0.01532639843750016,0.014790171828648703,0.015707859375000077,0.01505945453683291,0.013973544961249907,0.01227378864422146,0.012892808371443125,0.012522725525461848
